1843 50
*dt_0 -0.541128 -0.005151 -1.031422 0.629574 -0.739899 2.213750 -0.405763 0.514817 -1.216663 0.770713 0.143345 -0.169128 -0.560581 -0.193591 -0.676392 1.535429 -0.670806 1.101055 0.791326 -0.289391 -1.278920 1.517558 -3.112666 0.147360 0.593524 -1.595000 0.140295 1.595952 -1.154593 0.879251 1.543866 -1.114245 -1.174620 0.175298 0.325188 2.041995 -0.476611 0.331699 0.493605 -0.714864 1.065375 1.645583 1.166530 1.446604 -0.539268 -0.295493 0.631676 0.767371 0.962876 0.958352
*dt_1 -0.053016 0.011140 -0.646371 -0.391156 0.149481 -0.098007 0.258671 0.648281 0.340917 -0.734666 0.153077 0.156007 -0.177027 -0.028395 -0.500230 -0.171588 -0.800990 0.075937 0.383666 0.820220 -0.145315 -0.111182 -0.444534 -0.302346 0.280547 0.193848 -0.285956 -0.155748 0.214657 0.586693 0.316232 -0.473055 -0.267948 0.362112 -0.280738 0.299528 -0.219714 -0.310864 -0.627556 -0.947037 -0.139704 0.372567 0.607186 -0.053083 -0.539017 -0.186942 -0.566261 -0.463992 0.370078 0.490911
*dt_2 0.184009 0.926621 -0.330893 -0.350918 0.472550 -0.030664 -1.021140 0.764235 0.371785 0.896965 1.032338 0.234386 -1.271268 0.075322 -0.512014 1.308489 0.662456 0.747006 -0.335737 -0.184780 0.355356 0.270642 -0.812643 0.368688 -0.141010 0.367856 -0.237449 -0.210420 -0.365428 1.407481 0.449263 -0.909927 -0.217777 0.117904 0.360896 1.268884 -0.841869 0.887318 0.621109 0.179642 -0.102084 1.309804 -0.859216 0.285008 0.247540 0.437335 0.559785 -0.263953 -0.659975 -0.465312
*dt_3 0.685903 0.493350 0.017663 -0.190621 1.368749 -0.152265 1.465368 2.170881 0.913756 -0.671581 -0.162360 0.765315 -0.167609 -0.429827 -0.697173 -0.156909 -0.053093 0.571091 -0.608935 0.559601 -0.396886 0.769898 -1.247230 -0.644219 0.130170 0.363518 0.485934 0.013506 1.184786 0.088696 1.190212 -0.538517 0.227205 -0.145866 0.618593 0.068650 -0.227664 -1.511651 -0.381029 -0.741202 -0.287615 0.234565 -0.242427 1.056260 -0.365054 0.812352 0.086411 0.133430 -0.311059 -0.034564
*dt_4 -0.068963 -0.100858 -0.135911 -0.181177 0.108697 -0.069289 0.108704 0.532438 0.102541 0.126519 0.533744 -0.349952 -0.042760 0.327939 -0.322148 0.196089 -0.340931 0.982658 0.436620 0.097059 -0.413424 0.695915 -0.479914 0.154824 0.172144 0.517029 -0.039996 0.518645 0.058724 0.042775 0.621241 -0.685650 -0.076574 0.191874 0.094468 0.273144 -0.669475 0.200936 0.612599 0.130344 0.549608 0.837518 -0.078849 0.338224 -0.025963 -0.023918 0.253087 0.118881 0.219080 -0.216246
*dt_5 -0.321561 -0.550754 0.105892 -0.451331 0.262480 -0.826578 0.476480 1.247139 0.491940 -0.092536 0.389496 0.438838 -0.073988 -0.338924 -0.116817 0.559696 -0.379141 -0.052462 -0.027628 0.011594 0.070182 -0.212157 -0.229649 -0.136345 -0.362783 0.689778 0.480879 -0.457608 0.727814 0.612782 0.786265 -0.046934 -0.496759 0.090550 -0.060614 0.654036 -0.638442 -0.163826 -0.169204 -0.680992 -0.189671 0.176222 0.238084 0.167069 -0.510849 0.107336 -0.213743 -0.665271 -0.462209 -0.250848
*dt_6 -0.270809 -0.386479 0.127105 -0.660090 0.073293 -0.278098 0.599960 0.588929 0.452782 -0.214169 0.594823 -0.197709 -0.248746 -0.154331 -0.464348 0.738304 0.282661 0.616086 0.466993 0.187042 0.410314 -0.104686 -0.397829 -0.247872 0.255982 0.138761 0.110804 -0.189790 0.262279 -0.178305 0.786130 -0.107194 -0.029937 0.582024 -0.081489 0.251365 0.413094 -0.336416 0.043974 -1.225863 0.050298 0.466365 0.523705 -0.202353 -0.785005 -0.184624 -0.676929 -0.638868 -0.514855 -0.025073
*dt_7 0.210889 -0.918290 -0.918990 -0.345994 0.120071 0.292356 0.262387 0.949653 0.520545 -1.178959 -0.128928 -0.014599 0.692423 -0.615549 -0.906458 -0.429577 -0.569103 -1.075365 0.509137 -0.800109 0.385454 0.760927 -0.885484 -0.264979 -0.443760 0.876640 0.980510 0.310024 0.409021 -0.871985 0.775736 0.529431 0.348283 0.816628 -0.084127 0.470997 -0.645544 0.471239 0.004888 -0.822093 0.764167 -0.141022 0.000383 -0.591969 -0.163360 -0.357378 -0.698482 -0.989205 -0.850336 -0.329510
*dt_8 0.730935 -0.442209 0.304931 -0.141394 -0.256348 0.623328 0.909316 -0.055087 -0.343106 -0.161116 -0.163364 -0.169394 0.394320 1.145980 -0.034726 0.027185 -1.361625 -1.060179 0.273267 0.272160 -1.118460 0.174948 -0.676908 0.034720 -0.314545 0.094160 1.114897 1.493542 -0.189539 -0.804536 1.171888 -0.022489 0.019882 -0.023229 0.510618 1.702996 -2.038919 1.935018 0.233432 -0.378993 1.020206 1.281076 -0.340013 0.337020 -0.712613 1.248224 1.081596 0.850375 -0.500026 0.080564
*dt_9 0.672877 0.314793 -0.456475 -0.507546 0.702169 -1.250206 -0.381550 0.856185 0.620813 -0.196582 0.478974 1.070541 -0.451626 -0.088667 0.142973 0.320879 -0.880780 0.347798 -0.657181 0.025612 -0.297090 0.372768 0.092135 0.000657 0.049246 0.345852 2.217143 -0.893878 2.226501 1.556571 0.312049 -2.115340 -0.736109 -0.324064 -0.518249 -0.117440 -0.903939 -0.334239 0.817439 0.305646 -0.744075 1.225198 -1.156753 0.651401 -0.865592 0.969482 -0.407271 -1.304183 0.574061 0.155344
*dt_10 -0.020573 -0.602580 -0.108319 -0.546792 0.123080 -0.525683 0.397906 0.829140 0.395640 -1.020354 0.246617 -0.114392 0.112286 -0.338454 0.318505 0.189411 -0.475046 0.119470 0.319944 0.179041 -0.600507 0.210847 -0.189508 -0.083716 0.224565 0.343436 -0.122703 -0.571741 -0.391398 0.045018 0.727842 0.313391 -0.325340 0.912735 0.151536 0.189742 -0.202806 0.249448 -0.004360 -1.176816 -0.371730 0.670549 0.212070 0.040373 -0.516676 -0.453045 -0.445504 -0.377339 -0.596552 0.277986
*dt_11 0.766196 -0.565579 -0.266049 -0.272878 0.047134 -0.172384 0.382293 -0.250990 -0.472651 0.230430 0.703039 -0.372767 -0.473803 0.044359 -0.217439 0.257706 -0.212806 -0.482210 -0.015618 -0.269729 -0.999428 0.135724 -1.806447 -0.383302 -0.250166 -0.372626 0.369739 0.950947 -0.214637 0.644521 1.310350 -0.120825 -0.239650 0.139393 -0.574552 0.864643 -0.288808 0.238128 0.366512 -0.286131 -0.581220 0.921145 0.024130 -0.399822 -0.870849 -0.254397 0.031742 -0.036596 -0.292525 -0.659389
*dt_12 0.009826 -0.325061 -0.011197 -0.347199 0.977589 -0.456659 -0.278563 0.963280 0.720859 -0.197802 0.678628 0.034681 -0.526174 -0.610791 -0.344626 0.575679 0.355288 0.374458 0.178852 -0.329989 -0.469463 -0.066244 -0.461924 -0.032775 -0.162985 0.821848 0.317458 -0.700442 0.104463 0.538961 0.614309 -0.362504 -0.493682 0.219323 0.202309 0.680725 -0.090772 -0.171643 -0.376843 -0.830885 0.130207 0.705953 0.084608 0.051501 -0.260717 0.115944 -0.548198 -0.759414 -0.465803 0.572410
*dt_13 -0.130168 -0.276017 0.816427 -0.418680 -0.644628 -0.399754 0.040925 0.400191 0.018338 -0.480369 0.293454 0.030031 -1.067110 0.014420 0.230449 -0.004165 -0.113640 0.059475 -0.324139 -0.151109 -0.872876 0.451517 -0.436192 -0.519821 0.235246 -0.424925 -0.115429 -0.467326 0.205143 1.436276 1.023439 0.168563 -0.289987 0.290895 -0.446599 -0.200937 -0.443163 0.303091 0.209268 0.002492 -0.552396 0.529485 0.882902 0.238765 -1.161382 0.230596 0.616207 0.253611 -0.908546 -0.190710
*dt_14 0.010649 0.115352 0.003380 -0.141526 0.055051 0.038325 -0.264879 0.284183 0.459664 0.134872 0.115342 0.360992 -0.116793 0.056558 0.360538 0.760599 -0.608564 0.140306 -0.120722 0.318901 -0.466059 0.488244 -0.404289 -0.041869 0.106404 0.011839 0.334155 -0.282427 0.003034 0.391018 0.630671 -0.396262 -0.512473 0.046089 -0.382608 0.548039 -0.497956 0.264525 0.310243 0.001320 -0.083482 0.528226 0.161308 0.295260 -0.767946 0.016965 -0.076551 -0.474511 -0.805840 -0.136039
*dt_15 -0.557428 0.424752 -0.227037 -0.374805 0.301311 -0.328083 0.647210 0.632066 1.155718 -0.259610 0.472254 0.093999 -0.191061 0.320724 -0.189321 0.364648 -0.564594 0.187514 0.342334 -0.513568 0.139219 -0.067711 -0.572875 -0.231998 -0.119354 -0.142058 0.376099 0.739192 0.041566 0.666454 -0.157541 -0.368887 0.124376 1.161957 0.079954 0.344223 0.268793 -0.233161 0.445065 -0.139049 -0.223913 0.673695 -1.180354 -0.576659 -1.138147 -0.610521 -0.603485 -1.415276 -0.531544 -0.108361
*dt_16 0.218538 -0.429376 -0.654190 -0.537747 1.140072 -0.344177 0.265911 0.477111 2.069851 0.233840 1.223893 0.208401 0.306072 -0.806935 -0.280529 -0.038428 0.389744 -0.380201 0.157388 -0.327757 0.962702 0.287004 -1.256846 -0.342259 -0.391726 0.065855 0.473116 0.266251 -0.958220 1.530278 -0.728091 0.417124 0.897882 1.961814 0.953089 1.511059 -0.234880 1.424323 -0.606184 0.448589 0.568864 1.303434 0.384418 0.984323 0.238423 -0.028340 -0.370072 -1.587780 -1.643576 -1.092287
*dt_17 1.193563 -0.074693 -0.407960 -0.534787 0.104757 -0.388636 0.206308 1.320217 0.055836 -0.043050 -0.311796 0.732016 0.633290 -0.341230 -0.534482 0.358617 0.068827 0.042470 -0.099262 -0.224445 -0.512055 0.191116 -0.960032 -0.866148 -0.249913 -0.368905 1.288111 0.481184 0.886221 0.421764 1.656581 -0.577069 -0.242097 1.516896 0.510397 -0.015909 -1.039518 -0.390986 0.075860 -0.821959 -0.265124 0.320845 0.296422 -0.175507 0.120330 -0.260643 -0.617595 0.194947 -0.423970 -0.396843
*dt_18 0.110139 -1.394489 0.007736 -0.543576 0.006729 0.086949 0.067423 0.300287 0.342324 -0.417052 -0.071887 0.506897 -0.624407 0.295634 -0.006148 0.439373 -1.691199 0.221176 -0.137720 -0.031698 -0.196837 0.434117 -0.694414 -0.765102 0.420615 0.295146 0.279557 0.006465 0.343634 -0.176110 0.354672 0.218751 -0.034919 -0.347053 0.072149 0.860855 -1.090601 0.791549 -0.020226 0.128580 0.711181 0.609539 0.046148 0.172353 -0.182186 0.853352 0.781326 -0.432367 0.375261 0.166753
*dt_19 0.444581 0.359471 -0.199623 -0.888710 0.639289 0.073930 0.156251 0.602204 0.020510 -0.960553 0.290582 0.506265 0.264015 -0.276870 -0.470743 0.382229 -0.718690 0.584064 -0.659265 0.292539 -0.026457 0.078565 -1.033624 -0.144461 -0.104797 0.183607 -0.064843 -0.198912 0.702594 0.613822 0.641769 -0.698135 0.491601 -0.012392 0.037982 0.184999 -0.880630 0.233543 -0.250801 -0.718176 -0.204421 0.592771 0.729364 -0.011083 -0.247746 -0.219832 -0.325235 -0.183237 0.114221 0.576486
*dt_20 0.278805 -0.336600 -0.226193 -0.485051 0.116887 -0.091517 0.382638 0.178100 0.019743 -0.572805 0.259467 0.212531 -0.243674 -0.044339 -0.327437 -0.061849 -0.592117 -0.311901 0.194590 0.182276 0.027543 -0.096280 -0.137313 -0.335799 -0.371077 0.226498 0.385671 -0.170101 -0.031100 0.091344 0.521959 -0.142288 0.370910 0.064885 0.301321 0.571546 -0.352433 -0.289438 -0.199574 -0.818554 0.336722 0.524853 0.004346 0.342789 -1.073295 0.314643 0.057541 -0.055863 -0.445243 -0.312807
*dt_21 0.156575 -0.308935 -0.230247 -1.052168 0.030748 -0.029601 0.286434 0.804777 0.725844 0.280167 0.921885 0.067851 0.326868 -0.445552 -0.476429 0.486376 0.197681 0.028817 0.194623 -0.157230 0.104533 -0.354534 -0.494544 -0.118592 0.280985 0.627023 0.104662 0.015651 0.158098 0.241204 0.532943 0.156042 0.013187 0.487397 0.803918 0.608886 0.072352 -0.140091 -0.215506 -0.683787 0.083334 0.899309 0.011234 -0.305575 -0.563848 -0.167225 -0.461579 -0.172524 -0.078307 -0.267657
*dt_22 0.115888 -0.201142 -0.234670 -0.287627 0.084520 -0.458495 0.225782 0.607646 0.199472 -0.448956 0.440141 0.270864 -0.593708 -0.117517 0.454299 0.532307 -0.060320 -0.336566 0.551226 0.009416 -0.480645 -0.239471 -0.446290 0.093173 0.155805 0.409604 0.673797 -0.228387 0.027998 0.098835 0.605075 -0.474422 0.064664 0.013326 0.097269 0.365894 -0.764523 0.293181 0.338346 -0.277590 0.119261 1.009014 -0.127806 0.166658 -0.775763 0.249209 -0.611554 -0.281212 -0.612264 0.155496
*dt_23 -0.114104 -0.772350 0.420139 -0.133988 0.869100 -0.027725 0.269902 0.992948 0.977428 0.146155 -0.140173 -0.161538 -0.341503 -0.538992 -0.174060 0.322346 -0.003170 -0.212763 0.050866 -0.822857 -0.638765 0.691072 0.002227 -0.100290 -0.018142 0.892490 0.837888 0.098477 1.010864 0.207804 0.671956 -0.659909 -0.324209 0.360534 -0.886178 0.636026 -0.364333 -0.075411 0.592559 -0.619503 0.140791 0.281971 0.312212 0.100675 -0.659652 0.258059 -0.123800 -0.548665 -0.340821 -0.088683
*dt_24 0.559067 0.200398 -0.112319 -0.074693 0.792102 0.119593 0.308072 0.386282 0.333428 -0.429166 0.440370 0.485662 -0.627144 -1.052644 -0.347429 0.321239 -0.556127 0.018976 0.377367 0.248055 -0.128188 -0.070435 0.108909 0.195700 -0.140325 0.244437 0.111672 -0.039035 0.496991 -0.256572 0.929108 -0.558482 0.186508 0.578395 0.190671 0.699633 0.550371 -0.381388 -0.703520 -1.268667 -0.530638 1.056042 -0.170065 0.183317 -0.821879 0.008603 -0.288302 -0.500643 -0.568863 -0.532310
*dt_25 -0.186591 -0.368178 0.093533 -0.188217 -0.097632 -0.203565 0.499936 0.263561 0.113906 -0.200418 0.198293 0.196864 0.063787 0.154025 0.701320 0.551899 -0.487321 0.172289 0.415613 0.126677 -0.488585 0.224559 -0.242849 -0.235379 -0.065734 0.044229 0.113218 -0.014671 0.266970 -0.065637 0.448349 0.057554 0.027744 -0.085882 -0.249906 0.567415 -0.065936 -0.063541 -0.024696 -0.226981 0.228927 0.422148 0.023077 0.207777 -0.328444 -0.134150 -0.045054 -0.307652 -0.158198 -0.311464
*dt_26 0.171195 -0.171988 -0.315515 -0.581174 0.168743 -0.407939 0.127773 0.189011 0.281476 -0.133779 0.578110 -0.317923 -0.262522 -0.227580 0.359638 0.037271 -0.283601 0.400598 0.341642 0.082127 -0.371563 -0.297348 -0.001175 -0.121992 -0.255560 0.386768 0.086590 -0.056801 0.019659 0.198336 0.302956 -0.302232 0.097740 0.217417 -0.173039 0.475916 -0.331614 -0.000843 -0.266073 -0.458885 0.216436 0.604983 -0.261622 -0.150765 -0.134724 0.594619 -0.071082 -0.053278 -0.136430 0.013110
*dt_27 0.012097 -0.629127 -0.253956 -0.346980 0.068555 0.245056 0.377915 -0.224521 0.174657 -0.386597 0.223845 -0.256493 -0.035349 -0.103903 0.095053 0.004175 -0.166762 0.358594 0.675538 -0.485390 -0.079505 0.271406 -0.101290 0.272472 -0.425815 0.000297 0.189911 0.211565 0.068790 -0.040615 0.499387 -0.264115 0.126493 0.729186 -0.159264 0.488656 -0.190614 0.568140 0.058645 -0.689055 0.833325 0.298940 0.137715 -0.293021 -0.311709 0.242106 -0.017927 -0.535165 -0.256545 -0.487117
*dt_28 0.294143 -0.691384 0.475026 -0.304189 -0.099224 -0.249614 1.424390 0.323750 -0.704653 0.583779 0.731899 -0.288635 -0.239605 -0.312032 0.193937 0.562846 -0.281636 -0.182859 0.728538 -0.553627 -0.829583 -0.345602 -0.549150 -0.139786 0.433005 0.770160 0.373497 0.553120 -0.077980 -0.893361 1.281614 -0.334482 0.269339 -0.730823 0.035694 0.818513 -0.479958 0.423628 -0.222800 -0.619780 0.547864 1.074865 -0.247368 0.376096 -0.164560 0.007066 -0.705417 0.229391 0.082058 -1.078945
*dt_29 -0.206060 -0.261459 0.015418 -0.481729 0.122055 0.182871 0.415174 0.059643 -0.203249 0.007699 0.962751 0.689307 -0.186799 0.096695 -0.119306 0.811965 -0.620967 0.402020 -0.523383 0.264705 -0.125532 -0.428147 -1.200513 -0.311721 0.867866 0.514861 0.405188 0.303030 0.263761 0.008063 0.162272 -0.052927 0.564253 0.014407 -0.066559 1.289359 -0.713057 0.043041 -1.151158 -1.038558 0.155193 0.410631 1.544366 0.561520 -0.474297 -0.382039 -0.751661 -0.732761 0.131114 -0.098239
*dt_30 1.391012 0.988441 -1.175661 0.220376 0.096728 -1.327875 0.356229 -0.139634 -0.481524 0.969712 1.043004 -0.299622 0.572834 -1.103337 -1.002162 0.397565 -0.871598 0.178138 0.433419 0.280449 -1.007027 -0.111776 0.536385 -0.725217 -0.414082 -0.342009 0.116084 -0.151916 0.878176 0.550902 1.193389 -0.402861 1.112398 0.627503 -0.198529 1.283559 0.923010 -0.662763 -1.284288 -0.414975 0.215829 2.208004 1.030396 0.652349 -1.643984 0.776027 0.294567 -0.978521 -0.585538 -0.684043
*dt_31 0.765239 -0.101588 0.098120 0.001826 -0.449709 0.485684 -0.505750 0.850075 -0.031812 -0.535233 0.032422 -0.829689 0.212267 0.084289 -0.558203 -0.225382 -0.254313 -0.181232 0.335350 -0.604192 -0.453897 0.755003 -1.223531 -0.456268 -0.824724 0.158123 -0.135974 0.392712 0.981947 -0.652918 1.031249 0.187171 0.108296 0.520385 -0.316349 1.334677 0.532223 0.429109 -0.593397 -1.863381 0.544096 0.711720 -0.263686 -0.432389 -0.270265 0.443355 0.345607 -1.340674 -0.738972 -0.010674
*dt_32 -0.229522 -0.763995 -0.005398 0.189612 1.472419 -0.745327 1.201252 0.439265 0.899227 0.165092 0.121999 -0.248335 0.560161 -0.371172 0.392298 -0.148497 -0.931558 0.407157 0.726817 -0.673061 -1.430652 -0.720807 1.235939 0.501403 -0.268431 0.826602 1.687531 -0.317480 0.240090 -0.121198 0.949804 -1.391168 0.852808 0.413229 -1.162559 -0.644521 -0.222322 0.332620 -0.187288 -0.888035 0.506949 2.036453 0.633790 0.464968 -1.562711 0.495080 -1.565007 -1.378768 0.141604 -0.513825
*dt_33 -0.748932 -1.361800 0.477830 0.329589 0.614717 -0.065176 -0.413200 2.038859 0.558038 -0.113263 0.527993 -0.436230 -1.390875 -0.810168 -1.056399 1.164079 0.578840 2.170660 -0.389640 -0.144630 -0.203617 0.505677 -0.584248 1.098033 -0.021112 -0.861514 0.184416 -0.626754 1.131228 0.611978 1.561915 -0.776550 -2.855329 1.445745 -0.675030 0.175484 0.442465 -0.006310 0.244358 -1.994737 -0.845743 0.865644 0.575282 0.111947 0.362636 -0.349900 -0.630755 -0.832418 -0.057384 0.194826
*dt_34 1.163429 -0.189793 -0.151910 -0.729400 -0.359665 -0.141918 0.128001 0.234899 -0.529638 -0.015971 0.075337 0.266602 -0.115212 -0.565008 -0.398797 0.740747 -0.357962 0.195205 -0.103068 -0.756524 -0.172208 -0.131366 -0.416342 0.191761 0.297070 0.240799 0.551022 -0.066440 0.665948 0.223334 1.857514 0.333212 -0.237742 0.533919 0.513353 0.976908 0.073310 -0.127339 -0.132392 -1.556315 -0.135239 1.072041 -0.041190 -0.516377 -0.854068 -0.208808 -0.198430 -0.751189 -1.022608 0.090188
*dt_35 0.196065 -0.478504 -0.522781 -0.213349 0.477429 -0.115731 0.213242 0.215079 0.525270 0.307437 0.218092 0.143607 0.171430 -0.690210 -0.142127 0.116017 -0.023510 0.463922 0.373703 -0.056344 -0.416767 0.224079 -0.382249 -0.132633 -0.254555 0.131775 0.372821 -0.017217 0.000262 0.344303 1.223756 -0.211644 0.048985 0.573561 0.058559 0.829546 -0.088129 -0.042019 -0.739067 -1.175853 -0.113244 0.832727 -0.178734 -0.080554 -0.467935 -0.443691 -0.190823 -0.290539 -0.621416 -0.191621
*dt_36 0.431272 -0.319983 -0.001628 -0.325123 0.123947 -0.177870 0.386485 0.221785 -0.004591 -0.440764 0.287690 0.171186 -0.312543 0.068773 -0.075161 0.137037 -0.621099 -0.148147 -0.009085 0.075102 -0.147024 0.040356 -0.490722 -0.184416 -0.168977 0.124412 0.225451 0.146937 0.222810 0.058185 0.734484 -0.086715 0.103108 -0.057597 -0.001108 0.575075 -0.393492 -0.190806 -0.212632 -0.585838 0.089412 0.707638 -0.057469 0.129674 -0.835184 0.103015 -0.046236 -0.076284 -0.184534 -0.019467
*dt_37 0.314782 -0.640675 -0.327960 -0.808782 0.006255 -0.305984 0.370373 0.023375 -0.299284 -0.095735 0.651384 0.282633 0.178995 -0.258526 0.603694 0.118212 -0.228628 -0.150553 0.128105 -0.364377 0.426816 -0.258600 0.254021 -0.219009 -0.072130 -0.095428 0.280821 0.091598 0.224400 0.285474 0.700135 0.515225 0.251973 -0.030164 -0.071074 0.396955 -0.555613 0.394992 -0.179177 -0.213875 0.065252 1.202611 -0.289443 0.075861 -0.166961 0.308438 -0.082808 0.215583 -0.318948 -0.425392
*dt_38 -0.279576 -0.180163 -0.224987 -0.099489 0.125953 0.058313 0.581742 0.323426 -0.120815 -0.122972 -0.015941 0.685918 -0.297490 0.002278 -0.240581 0.910080 -0.674238 0.480699 0.082897 0.263260 -1.110847 0.250361 -0.296718 0.129616 0.344346 0.304803 -0.271395 0.066536 -0.492020 -0.158767 0.395323 -0.358116 -0.526156 -0.051258 0.028477 1.139411 -0.339509 0.069221 0.396830 0.023230 0.709562 0.905837 -0.429705 0.339052 -0.439912 0.064656 0.023624 0.011586 -0.832099 0.296905
*dt_39 -0.407795 -1.500138 0.355216 -0.833989 0.729115 0.010000 0.223673 0.731667 -0.009460 0.007397 0.742289 -0.920420 0.346841 -0.283393 -0.411904 0.972339 0.097975 0.343882 0.637884 -0.059919 -1.137730 -0.368171 -0.357019 -0.556283 0.286974 0.287895 0.509125 -0.396597 0.377612 0.573817 -0.090237 -0.749527 -0.186767 0.358095 -0.464556 0.237391 0.033088 0.328125 0.161245 -0.863322 -0.029350 1.192278 0.033122 -0.154779 -1.026286 -0.180814 -0.748064 -0.251955 0.237164 0.009920
*dt_40 0.120025 -0.459781 -0.106095 -0.403458 -0.396404 -0.194512 0.334652 0.474998 0.055835 -0.637887 0.327766 0.498819 -0.469416 -0.929596 0.328631 0.088669 -0.529246 0.502087 0.418344 -0.436652 -0.405498 0.219940 -0.214711 0.090434 -0.348436 0.268201 0.369277 -0.285296 0.301238 0.087402 1.217654 -0.210418 0.102858 -0.020137 -0.126331 0.287800 0.166784 -0.552715 -0.448366 -0.913696 -0.431448 0.704266 -0.073108 0.188943 -0.466945 0.046816 -0.214002 -0.253846 -0.343049 -0.062594
*dt_41 0.048266 -0.549497 0.036180 -0.371311 0.524777 -0.199386 0.255520 -0.019259 0.098199 -0.258131 0.822421 0.040157 -0.189997 0.074141 -0.231144 0.594738 0.332705 0.332639 0.534829 -0.420928 0.142520 -0.385188 -0.273721 -0.053232 -0.466142 -0.043854 0.309896 -0.650099 -0.307643 0.060654 0.585328 -0.339550 -0.353461 -0.348311 -0.014304 0.533904 -0.038733 0.513408 -0.111063 0.037696 -0.617207 0.478398 -0.521836 -0.000763 0.024052 -0.012316 -0.483470 -0.291040 -0.187903 -0.004564
*dt_42 0.086570 -0.336577 -0.068612 -0.649144 -0.185614 0.052314 0.069808 0.183523 0.476873 -0.435651 0.935201 0.497712 -0.535109 -0.423309 -0.475660 0.833380 -0.473117 0.300190 -0.070050 0.173617 -0.051813 0.102701 -0.878710 -0.226050 0.579776 -0.186555 0.309270 0.071713 0.150439 0.554732 0.234994 -0.040171 -0.380478 0.553696 0.392384 0.836613 -0.357010 0.185466 -0.191715 -0.841714 -0.201413 1.114067 -0.027530 0.526476 -0.183164 -0.437608 -0.423489 -0.582266 -0.321005 -0.185232
*dt_43 0.245598 -0.159658 -0.408823 -0.860506 0.725209 -0.379239 0.482597 0.783349 0.249528 -0.206968 -0.025031 0.845564 -0.657936 -0.147658 -0.173166 0.324942 -0.671925 -0.410956 -0.244022 0.777020 -0.019241 0.201321 -0.276035 -0.184520 0.598071 0.526944 0.546674 -0.085847 0.245061 0.270525 0.030122 -0.337035 0.025655 0.430271 0.116998 0.401768 -1.038025 -0.923317 0.125146 -0.492278 -0.037107 0.025473 0.022031 0.916203 -0.462081 0.404670 0.104630 0.071671 0.330322 0.017555
*dt_44 -0.760338 0.519212 -0.249522 0.951564 -0.249164 -0.026025 0.124758 -0.049156 -0.175234 0.091515 0.840261 1.328943 -0.222369 -0.041301 0.690466 0.690672 -1.025883 0.745172 -0.435838 -1.117511 -1.419892 1.157536 0.293030 0.120951 -0.679481 0.725398 0.425329 -0.108652 1.044192 0.124833 1.220680 -0.553587 0.038910 -0.717648 -0.794348 0.773004 -0.760176 1.055617 -0.035434 -0.394700 0.109737 1.301770 -0.463589 -0.678645 -1.184332 1.312562 -0.426749 -0.579351 0.069872 0.324647
*dt_45 0.053791 -0.042072 -0.260135 -0.599303 0.376845 0.095324 -0.076583 0.750789 0.153020 -0.372181 0.120763 0.183238 -0.158760 -0.282059 -0.399404 0.151033 -0.200738 -0.400930 0.406090 0.075764 -0.563585 -0.141479 -0.515697 -0.067560 -0.044933 0.222065 0.217140 0.229999 0.319722 0.411263 0.514700 -0.727538 0.184428 -0.208341 0.050714 0.215591 -0.390354 -0.716313 -0.070849 -0.431653 -0.160611 0.815803 0.130998 0.540308 -0.914241 0.113524 -0.010046 -0.219011 0.198244 -0.091363
*dt_46 -0.357519 -0.299186 0.047972 0.073156 0.235435 -0.022440 0.286171 0.017500 0.296234 0.010594 0.404986 0.385505 -0.150678 0.105398 -0.249553 0.596824 0.318536 -0.072139 0.362087 -0.323184 -0.337936 -0.035125 -0.430536 0.243591 -0.132421 -0.130065 0.136401 0.122399 -0.054594 0.580011 0.414759 -0.064997 -0.401052 0.213827 0.024933 0.428509 0.056565 0.289919 -0.358659 -0.209105 -0.040105 0.392945 -0.062633 0.023757 -0.383741 0.219988 0.028122 -0.105470 0.076413 -0.008549
*dt_47 0.198717 0.634311 -0.638362 -0.778153 0.556627 0.488039 0.401395 0.875367 -0.093115 -0.260167 0.245925 0.825917 -0.591688 -0.063168 -0.336954 0.697783 -1.374325 0.297505 -0.266942 0.703615 0.667208 0.388140 -1.772808 -0.052103 0.054399 -0.009449 0.126554 0.190585 0.092343 0.365183 0.838722 -0.787230 0.387826 -0.340883 0.138183 1.042406 -0.811773 -0.105954 0.309328 -0.103521 -0.502527 0.550851 -0.020803 0.368612 -0.233350 -0.089181 0.258885 -0.649323 0.231100 0.223078
*dt_48 -0.417363 -0.781478 0.062649 -0.777043 0.328915 0.084085 0.024688 0.355340 -0.194556 -0.045321 0.580120 0.546931 -0.581954 -0.016620 -0.038258 0.079294 -0.302101 0.419309 -0.267167 0.028192 -0.486301 0.738704 -0.283129 -0.209164 0.850212 0.041147 1.063531 -0.487743 0.097487 -0.285907 0.618846 0.042502 -0.554173 0.313971 -0.377760 1.013693 -0.700171 0.145577 0.653179 -0.697966 0.102031 1.008569 0.254486 0.608776 -0.445076 0.591151 -0.061470 -0.049083 -0.728451 0.168044
*dt_49 -0.050382 -0.653015 -0.062879 -0.637166 -0.203920 -0.073584 -0.119321 0.076793 0.206812 -0.167622 0.357664 -0.043033 -0.035378 0.146633 0.259213 -0.002435 -0.584910 -0.010213 0.114247 0.247550 -0.164247 0.491658 -0.186874 0.414762 -0.157459 0.142393 0.458178 -0.020551 0.016738 0.087970 0.520973 -0.363358 -0.087153 0.220933 -0.897171 0.586859 -1.019123 0.885450 -0.038521 -0.491993 0.165387 0.250696 0.519904 -0.008879 -0.568135 0.200273 0.187236 -0.306729 0.094436 -0.151160
*dt_50 0.079077 -0.026205 -0.127942 -0.475259 0.559735 -0.430186 0.530126 0.328650 0.654547 -0.335938 0.840184 -0.003702 -0.046590 0.502656 0.111453 0.285122 -0.542681 -0.155485 0.570934 0.093577 -0.556990 0.110865 -0.457222 -0.447860 -0.247689 -0.207264 0.460330 0.142180 0.478667 0.242697 -0.020344 -0.414481 0.831922 -0.127728 -0.288681 0.497771 -1.030563 0.315688 0.554366 0.199929 0.346631 0.943127 0.012845 0.278017 -0.915876 -0.049436 -0.023224 -0.732712 0.390716 0.129570
*dt_51 0.062657 -0.741014 -0.384066 -0.578177 0.478288 -0.095284 0.061040 0.172147 0.334076 0.008590 0.545807 -0.333944 -0.073632 0.211501 -0.294374 0.366532 0.051744 0.232703 0.285375 0.282559 -0.148993 0.247317 -0.597283 0.043260 -0.010340 0.218756 0.027230 0.353950 0.004985 -0.057280 0.438307 -0.199556 0.204204 0.437890 -0.237042 0.697837 -0.606526 0.494794 0.357632 -0.215461 0.320653 0.837516 0.492509 0.210670 -0.613855 -0.018432 -0.170474 -0.137099 -0.265468 -0.276393
*dt_52 -0.272196 -0.286525 -0.102955 -1.012713 -0.713901 -0.101511 0.011492 0.126836 -0.704872 -0.575154 0.894960 -0.025418 -0.749784 0.882302 -0.897914 0.442194 -0.310435 -0.195228 0.640386 -0.768204 -1.197870 -0.185250 -0.361050 -0.310917 -0.514476 -0.718471 1.601131 -0.081000 0.026970 0.429289 0.290180 -0.236359 -0.211109 0.331397 0.435030 1.693687 0.470827 0.680689 0.010577 -0.667664 0.283851 0.753421 -1.479184 0.125049 -1.134922 1.120796 0.241207 -0.508693 0.708111 -0.544860
*dt_53 0.085953 -1.028510 -0.214641 -0.553545 -0.169293 -0.162090 0.343088 0.068461 0.873144 -0.650767 0.802970 -0.537965 -0.321237 -0.216645 0.186417 0.734063 -0.444707 0.293344 0.376368 -0.654363 -0.543374 0.061093 -0.382904 -0.630202 -0.211069 0.652268 0.850533 0.491126 0.393205 -0.128797 0.514830 0.363418 -0.238295 0.792892 -0.102659 1.123202 0.533770 -0.287968 -0.137856 -1.209714 0.257144 0.801044 0.008476 -0.679370 -0.697127 -0.319298 -0.268261 -0.509233 -0.634656 -0.224419
*dt_54 0.329771 0.485710 -0.208066 -0.670053 -0.052150 0.085694 0.832905 0.185531 -0.083012 -0.049194 0.138452 0.630206 0.038206 1.014494 0.086535 0.508766 -0.732766 -0.189925 0.104259 -0.200440 0.063465 0.186756 -0.535528 -0.394445 0.351573 -0.074571 -0.068196 0.498503 -0.181801 -0.089908 0.728997 0.115798 0.670114 0.137113 0.604365 0.854466 -0.923609 -0.065431 -0.401026 -0.279101 0.774249 0.793216 -0.233240 0.375864 -0.188551 0.680300 0.003895 0.014255 -0.275800 -0.121905
*dt_55 -0.651091 -0.354032 -0.012554 -0.279360 0.653800 -0.536218 0.252260 0.986519 0.571715 -0.459435 -0.046736 0.641326 0.262829 -0.389007 0.053134 0.484473 0.698834 0.459938 0.406775 0.728664 -0.052127 1.056328 0.226642 0.332766 -0.572395 0.037367 -0.255510 0.343961 -0.044282 1.397289 1.308464 -0.694741 -0.410020 0.445937 0.044460 0.074220 0.033316 -1.126559 -0.316738 -0.601696 0.226757 1.140293 -0.190036 0.492709 -0.483423 -0.438859 0.356600 0.026409 -0.923955 0.228885
*dt_56 -0.006584 0.140883 -0.014394 -0.124773 -0.166837 -0.050482 0.326098 1.088583 -0.752295 -0.329110 0.710460 0.538261 -1.590145 0.337451 -0.289179 0.807946 -0.723027 -0.634474 0.164412 0.702849 1.446427 -0.336162 -1.312506 0.201815 -0.686231 0.212557 0.744705 -0.343613 -0.241989 1.665246 0.761151 -0.329271 -1.014709 -1.358639 -0.812854 -0.026175 -0.835401 0.680786 1.111932 0.444434 0.684462 0.559423 1.187596 1.995792 -1.117398 1.044787 0.551477 -0.447767 -0.462520 0.442991
*dt_57 0.943967 -0.276230 0.563490 -0.078820 0.638439 -0.580370 0.626247 0.833965 0.224081 0.012477 -0.246468 1.238250 -0.182777 0.378022 -1.019320 0.924673 -0.414528 0.008330 -0.015536 -0.518080 -0.679873 -0.028476 -0.750541 0.184786 -0.354318 -0.253480 0.462334 -0.204457 0.852586 -0.602434 0.563504 0.253464 0.144055 -0.773665 0.612635 1.385587 -0.610110 0.537935 -0.401895 -0.822991 0.300637 0.625599 -0.052972 0.821304 -0.167883 1.495004 0.797583 -0.378541 0.062302 0.450353
*dt_58 0.136629 -0.669672 -0.514961 -0.395036 0.308838 -0.447848 0.018145 0.321447 0.721721 -0.081482 0.680132 -0.169358 -0.169949 -0.109715 0.115451 0.041678 -0.274814 -0.360158 0.536066 0.081311 -0.297575 -0.085926 -0.021971 0.291720 -0.329604 0.465751 0.290302 0.007943 0.344541 0.034865 0.091252 -0.238902 -0.275520 0.379115 -0.461453 0.192673 -0.302519 -0.038909 -0.013214 -0.263629 0.025852 0.411482 -0.025649 0.236940 -0.543506 0.146018 -0.419333 0.004356 0.130475 -0.053538
*dt_59 -0.032337 -0.434993 0.442157 -0.410177 0.167797 0.022117 -0.103461 0.180335 0.441946 -0.443912 0.389346 -0.089337 -0.279820 -0.318590 -0.279336 0.488895 0.108570 0.064680 0.326450 -0.082952 0.236911 -0.281273 -0.404145 -0.126658 -0.147590 0.081187 0.319267 -0.581758 -0.202121 0.274429 0.230495 0.189327 -0.142794 0.404177 0.192663 0.470782 -0.064399 -0.134876 0.003277 -0.701202 -0.015291 0.494615 0.271627 0.223880 -0.765932 -0.202904 -0.075980 -0.563984 -0.477346 -0.115456
*dt_60 0.756878 -1.238614 -0.166226 -0.354911 -0.219565 0.348742 -0.841446 -0.333238 -0.951936 -0.757316 -0.652114 -0.413587 -1.078545 0.719079 -0.690724 1.168912 -0.614742 1.686008 1.446487 -0.712939 -0.149838 1.603996 -0.841558 -0.367605 1.123042 0.791362 1.201993 -0.173980 1.191471 0.139409 0.452983 -2.544614 -0.951230 -0.233128 -0.543291 0.880904 0.042428 0.020899 2.393010 0.285295 1.235158 0.671082 -0.625657 0.869889 -0.644474 0.247626 0.117211 0.250321 1.753664 0.987659
*dt_61 0.254363 -0.202691 -0.386823 -0.338503 0.655762 -0.163306 0.236625 0.880335 0.169013 0.439255 0.484259 -0.181871 0.423467 -0.113894 -1.073956 0.641016 0.071493 0.838907 0.436858 0.199700 -0.499560 -0.225891 -0.147576 0.372828 -0.393140 0.858966 -0.354537 -0.266762 -0.330727 0.984309 0.763593 -0.854249 -0.461201 -0.601635 0.042502 0.611126 0.359680 -0.519217 -0.030641 -0.356311 0.460950 1.508635 0.336440 0.422557 -0.512836 0.054615 -0.876460 -0.297548 -0.717064 -0.225621
*dt_62 0.202691 -0.413700 0.156331 0.209909 -0.530976 0.170374 -0.116355 0.385753 0.232269 0.212931 -0.248696 0.319043 -0.559018 0.209861 -0.045149 0.537312 -0.909107 -0.570564 0.201587 -0.296877 -0.326724 0.261916 -0.481848 -0.204071 -0.108018 0.399216 1.018329 -0.298053 0.364027 -0.192821 0.551878 -0.384702 -0.404147 -0.130376 -0.196644 0.736824 -0.139823 0.365779 0.542574 -0.043748 -0.107582 0.681791 -0.680310 0.382840 -1.362082 0.522562 0.098632 -0.321438 -0.429827 -0.648924
*dt_63 0.068008 -1.761188 0.099274 -0.898594 -0.446797 -0.426896 0.436576 0.681347 -0.251768 -0.722155 0.590432 0.510975 -0.395496 0.139490 1.324107 0.177279 -0.701483 0.361777 0.062159 -0.070205 -0.736578 0.431533 -0.591021 0.611178 0.494178 0.209141 0.267278 0.052542 0.137175 0.467772 0.370237 -0.048900 -0.385424 -0.460979 0.098391 0.721884 -1.088531 0.960692 0.370129 0.034760 0.857871 1.508068 -0.253794 0.837759 -0.203051 0.321078 0.500688 0.629709 -0.223112 -0.234734
*dt_64 0.041007 0.549208 0.524424 -0.573590 -0.428698 0.076099 -0.287425 0.701320 0.191303 -0.458667 0.418191 -0.049186 -0.270206 -0.282243 -0.712675 0.967769 0.672406 1.229084 -0.186250 0.233825 0.059764 0.614331 -1.289443 0.462543 0.539825 -0.344428 -0.528096 0.495067 0.735391 0.128986 0.662975 -0.595790 -0.315201 0.561793 0.677322 0.110484 -0.353411 -0.381024 0.086966 -1.139074 -0.315528 1.185389 0.448837 0.392807 -0.270792 -0.814539 -0.046517 -0.640025 0.394466 0.509578
*dt_65 0.254079 -0.394088 0.145840 -0.658926 0.016435 -0.010310 0.440026 0.144806 0.543063 -0.255481 0.570801 -0.054774 -0.229747 -0.001301 -0.328631 0.403492 0.040404 0.182549 0.312010 -0.126054 -0.015911 -0.158118 -0.549856 0.044473 -0.336932 0.121142 0.316757 -0.218945 0.221114 -0.196246 0.808254 -0.073721 -0.072650 0.576169 -0.128589 0.381272 0.000432 -0.001994 0.055529 -1.068640 0.132351 0.812017 0.080583 0.151046 -0.754728 0.096159 -0.167873 -0.377317 -0.262031 -0.282378
*dt_66 -0.160702 -0.710015 -0.694514 -0.821912 0.809223 -0.697934 0.144535 0.726608 -0.127522 -0.396474 0.865314 0.857595 0.058633 -0.526925 0.140850 0.928009 0.252254 -0.030843 0.857101 0.009709 -0.830539 0.568454 0.241601 -1.243651 -0.461650 0.602944 -0.078964 -0.296421 0.081337 0.042354 0.628627 -0.035404 0.162441 0.447712 0.947013 1.334083 -0.415181 0.475216 -1.023958 -0.807469 -0.157700 0.040361 -1.110059 -0.915458 -0.159735 0.668362 -0.152174 -0.317926 0.343649 -0.075509
*dt_67 -0.374934 -0.300712 -0.025096 -0.286360 0.495899 0.179571 0.340050 0.790160 -0.028011 -0.273299 0.371378 0.506472 -0.478068 0.090141 0.253946 0.487377 0.037500 0.482136 0.343343 0.037390 0.443158 0.202227 -0.357569 0.272588 0.173737 0.522450 0.657959 0.229263 0.075461 0.133598 0.324795 -0.662982 0.097405 0.378444 -0.127459 0.290257 -0.363502 -0.236749 0.468972 0.213980 0.321830 0.584706 -0.109569 0.889982 -0.477702 0.000083 -0.363292 0.132250 -0.298502 -0.284898
*dt_68 -0.702798 0.576519 -1.122863 0.492655 1.050598 -0.537680 -0.117304 0.629494 -0.078179 -0.525209 0.426060 0.857160 0.425550 0.373528 1.393553 0.165168 -0.211067 -0.505959 0.203470 -0.004438 -0.772935 1.129836 0.427223 -0.416808 0.238433 -0.231336 0.276678 -0.133796 0.905041 1.455066 0.114742 -0.553907 0.231784 0.790017 -0.578973 0.819492 -0.719010 0.624150 0.026289 0.218376 1.041624 0.857107 0.369374 0.662229 -1.238055 0.627571 0.006385 -0.427012 -1.130060 -0.504614
*dt_69 -0.188216 -0.088216 -0.300682 0.538941 0.562874 -0.273152 -0.076557 0.048156 -0.183629 -0.355443 0.181391 0.236707 -0.521773 -0.836981 -0.134091 -0.170565 -0.484535 0.484278 0.601604 0.274431 0.403710 0.476883 -0.238505 -0.295871 0.005863 0.284700 0.133811 0.828683 0.182128 0.554685 0.239879 -1.310501 0.505620 0.325632 0.336569 0.321559 0.086583 -0.227879 0.622929 -0.166347 0.039102 1.256973 0.527694 0.728993 -0.774926 0.284435 0.035052 0.157483 0.490736 -0.383029
*dt_70 -0.001071 0.024609 -0.524190 -0.951606 1.002902 0.022553 -0.233673 0.943593 0.067607 -1.331683 -0.487692 0.348671 -0.313431 0.440286 -0.136851 -0.065254 0.042827 0.788390 0.517248 -0.259063 0.438353 1.400069 -1.660950 0.409824 -0.115893 0.935353 0.306224 1.442234 1.099026 0.608042 0.421621 -0.698365 -0.530169 -0.159135 0.084255 0.465618 -0.692547 0.225264 0.831811 1.316143 1.085800 1.009554 -0.569727 1.037537 0.963440 0.241582 0.168710 0.655812 0.156032 -0.506900
*dt_71 -0.341225 -0.522212 -0.706633 -0.176828 0.251608 0.055216 0.680583 -0.035386 -0.078395 -0.005377 0.891231 0.313842 -0.425599 0.963430 -0.698906 0.624639 -0.161858 -0.273957 0.706008 -0.293313 -0.112452 0.377023 -0.193007 -0.602947 -0.053973 -0.206993 0.852341 0.549909 -0.308157 -0.045972 -0.231362 -0.626404 -0.685003 0.907129 -0.193966 1.520592 0.290082 0.876527 1.009153 0.112315 0.454413 0.516459 -0.279009 -0.010544 -1.216285 0.376379 -0.020594 -0.370492 -1.328806 -0.172316
*dt_72 0.051072 -0.407154 -0.090733 -0.450853 0.077335 -0.307951 0.115587 0.267127 0.058895 0.183414 0.336488 -0.296786 -0.018036 0.033228 -0.254000 0.311972 0.113315 0.355193 0.288507 -0.138543 -0.211178 0.038249 -0.156922 0.310995 -0.194485 -0.001308 0.172537 -0.192679 0.369539 0.370225 0.779135 -0.295382 0.024433 0.145587 -0.412059 0.258347 -0.086234 0.021453 0.009847 -0.789345 0.043064 0.543425 -0.004316 0.125614 -0.571284 0.169911 0.015796 -0.093998 -0.080002 0.150122
*dt_73 0.024940 0.112542 -0.030706 -0.219216 0.052989 -0.189107 0.206470 0.209738 0.177158 0.004577 0.420195 0.159502 0.178488 0.134356 -0.248309 0.071029 -0.412664 0.004736 0.105764 0.213848 -0.441390 0.189979 -0.355297 0.088273 0.075807 0.207359 0.186856 -0.258033 0.051955 0.335595 0.538886 -0.050497 0.155068 -0.071123 -0.561641 0.330382 -0.488810 0.084786 -0.301735 -0.189483 0.305505 0.453569 0.429734 0.414084 -0.678759 -0.032791 -0.107640 -0.604469 -0.197705 -0.397884
*dt_74 0.226270 -0.444799 0.464527 -0.241374 0.278896 -0.588721 0.107057 0.586457 0.478420 -0.264588 0.314767 0.270843 -0.152976 -0.220442 0.178522 0.546124 -0.079776 0.366901 0.031989 0.086281 -0.077768 0.063482 -0.472344 0.000771 -0.199454 0.188301 0.423064 -0.306007 0.761512 0.277166 0.987829 -0.084008 -0.241959 0.215584 -0.354226 0.454447 -0.548173 -0.045856 -0.065001 -0.740337 -0.146823 0.376408 0.162912 -0.153983 -0.483610 -0.235493 -0.069673 -0.760085 -0.340624 -0.142058
*dt_75 0.581847 -0.152822 0.100406 -0.990808 -0.180861 -0.599567 -0.072600 0.115574 1.379810 -0.004902 0.482878 0.992870 -0.010101 -0.214394 1.177955 0.650608 -0.982160 0.746103 -0.312771 -0.263982 -1.326927 0.845946 -0.728242 -0.416031 -0.264637 -0.675977 -0.438964 0.119295 1.320243 0.284648 1.653971 0.061972 -0.490046 0.387825 -0.904644 0.646175 -1.001890 0.553801 -0.707474 -0.548948 -0.200378 0.605175 -0.767324 -0.646702 -0.194145 -0.662954 0.053434 -0.393567 -0.389560 -0.432498
*dt_76 0.233832 -0.278565 -0.256697 -0.069050 -0.207122 -0.151072 -0.084991 -0.021671 0.227267 -0.084278 0.393436 0.123603 -0.233202 -0.491545 -0.086626 0.226790 0.063024 -0.137425 0.113044 -0.185319 0.024898 0.319782 -0.360504 -0.072509 -0.198974 -0.042133 0.187358 -0.072137 0.198603 0.169178 0.659265 0.157460 -0.364429 0.278408 -0.063876 0.120804 0.035059 0.030691 -0.107666 -0.190785 -0.431814 0.346538 -0.027653 -0.036073 -0.688832 -0.406657 -0.333060 -0.385255 -0.275328 -0.299950
*dt_77 0.178537 0.047020 0.185457 -0.227454 0.016961 -0.684412 0.929434 1.460909 0.387123 -0.667804 0.367768 0.983476 -0.455444 -0.621435 0.165577 0.384488 -0.064725 2.464729 -0.049008 0.066543 -0.718085 0.259455 -0.898762 0.347179 0.662620 1.026188 -0.147259 -0.999598 0.738378 0.466675 0.810181 0.113288 -0.248465 0.457566 -1.233732 0.163549 -0.824153 -0.011557 0.080884 -0.147159 -0.057432 0.499466 0.605115 -0.137894 0.510286 0.089240 0.102934 0.920657 -0.282705 0.921842
*dt_78 0.325182 -0.063629 0.060915 -0.437397 0.521756 -0.274560 0.087308 0.326921 0.522710 -0.530274 0.174100 -0.557380 -0.038563 -0.253976 -0.177475 -0.067302 -0.073865 0.719721 0.034202 0.137837 0.097588 -0.350976 -0.159551 0.284330 -0.182982 0.201873 0.153704 0.015936 0.348167 0.029339 0.732226 -0.310039 -0.144718 0.871422 -0.423741 0.412142 -0.412386 -0.157139 -0.317331 -0.579151 -0.141824 0.662259 0.495432 0.007468 -0.168544 0.584926 -0.477964 -0.176675 0.075623 0.018227
*dt_79 1.469095 -0.513859 -0.292361 -1.705897 -0.030306 -1.350307 -0.034347 0.615313 1.140109 -1.707061 1.237368 -0.259839 0.562833 -0.745333 -0.379165 -0.421522 -0.215029 -0.834678 0.009166 0.111566 -1.156081 -0.088393 -0.825081 -1.238595 -1.604661 0.384845 1.201963 0.387017 0.506596 0.046336 0.686388 0.682643 0.789189 1.175822 -0.598715 1.173102 -0.945965 -0.341047 0.007283 -1.902237 0.171683 0.843356 0.924884 -0.356865 0.584434 1.674031 -0.042585 -1.415828 -1.071596 -1.516080
*dt_80 -0.087235 -0.230507 0.416894 -0.272241 -0.206782 0.083554 0.748041 1.298561 -0.072068 -0.579706 -0.048143 0.176729 -0.286602 0.223927 -0.267709 0.506988 -0.137805 -0.120825 0.175785 0.098941 -0.356136 0.261868 -0.829016 0.171519 -0.404723 -0.186824 0.197367 0.014277 0.578065 -0.431865 0.657650 -0.008564 -0.105343 0.197620 -0.239563 0.748992 -1.041141 -0.140983 0.459069 -0.318242 -0.177961 0.072082 0.056482 0.814160 -0.456860 -0.003413 -0.045417 -0.798487 -0.152698 -0.435606
*dt_81 -0.194277 0.263469 0.053896 -0.414308 -0.499282 0.108715 0.376961 0.238644 -0.068507 -0.770065 0.300044 0.755184 -0.139151 -0.182631 0.429034 0.342251 -0.240892 0.595507 0.029505 -0.087961 0.129136 0.626800 -0.711097 -0.119104 -0.199212 0.012283 0.222213 0.035595 0.113147 0.283175 0.944035 0.085876 0.381618 -0.139668 -0.967288 -0.093773 0.160542 -0.480220 0.111389 -0.635483 -0.095785 0.598464 0.357072 0.370667 -0.510786 -0.058435 -0.409964 -0.310353 -0.062592 -0.122988
*dt_82 -0.493918 -4.834574 2.039329 0.861803 2.975680 -1.639184 0.149012 1.539469 -0.374171 0.913498 -0.453545 -1.519107 0.584143 -0.282174 0.282067 1.297434 0.275559 2.816366 -2.105339 0.949004 -1.772895 1.336538 -0.611598 -0.485682 0.108428 -0.084115 -0.441022 0.442377 2.212404 1.557655 1.117356 -2.841786 -1.759657 0.195385 -3.925398 0.727665 0.427662 2.372763 -1.170234 -1.656175 -1.308473 2.072579 2.033287 -0.526550 -2.221581 -1.616114 -0.840558 0.442962 0.883979 0.090016
*dt_83 0.022560 -0.796837 0.232896 -0.456294 0.734042 -0.415963 0.138485 0.762391 0.282106 0.215603 -0.391436 0.397040 0.034258 -0.633865 0.102300 0.799528 0.460957 1.448348 -0.050529 -1.063718 -0.121712 0.965662 0.176721 -0.732956 0.026486 -0.152209 0.439729 0.699430 0.962406 0.534470 0.609043 -0.134835 -0.392813 1.000628 -0.134817 1.493903 -0.076605 0.317346 -0.428109 -1.321650 0.592527 0.991125 0.054277 -0.812278 -0.033399 0.636337 0.391079 0.487507 0.088827 -0.303599
*dt_84 0.452751 -0.136640 0.814158 -0.521730 -0.262197 0.036151 -0.440414 0.266547 0.033317 -0.867537 0.668017 0.349680 -0.035348 0.065600 0.726643 1.536258 -0.620776 0.500471 -0.130511 0.073408 -0.600963 0.411056 -0.094451 -0.521619 0.305293 -0.107378 0.575126 0.018308 0.543174 -0.564655 0.850922 -1.041778 -0.384989 0.258028 -0.570785 0.880673 -0.614187 0.612129 -0.241932 -0.692299 -0.106039 0.764805 -0.080512 0.364067 -1.249469 0.789900 0.089337 -0.747961 -0.428620 0.000760
*dt_85 -0.790671 -1.466372 1.257402 -0.954139 0.512593 0.273800 0.717206 0.557700 1.224384 0.044192 -0.297765 0.052243 0.555040 -0.133006 0.075171 0.509948 0.355428 0.233753 0.153856 0.117607 -0.646020 0.523685 0.388334 0.000057 -0.884050 0.154457 0.822126 -0.032734 1.173133 -0.253428 1.464772 -0.102841 -0.928210 0.078214 -0.478045 0.149570 -0.806095 0.616607 0.368189 -0.563254 0.478073 0.028687 0.896197 -0.293743 -1.545045 0.478925 0.251056 0.184753 -0.651559 -0.502814
*dt_86 0.032359 -0.896392 0.190024 -0.411667 0.339663 -0.228192 -0.014264 -0.025261 0.129581 0.099734 0.849455 0.251531 -0.411119 -0.932208 -0.204824 0.728743 0.125854 0.456496 -0.061596 -0.226074 0.421431 -0.141195 -0.156712 -0.348119 -0.134954 0.056081 0.724841 -0.447085 0.293307 0.230454 0.544315 -0.245094 0.387125 0.022626 -0.367287 0.422017 0.079042 -0.145797 -0.169833 -1.116184 -0.489007 0.419260 -0.074727 0.132025 -0.946013 0.386216 -0.131952 -0.674804 -0.478982 -0.264091
*dt_87 0.497250 -1.368794 0.992893 -0.474234 0.472485 -0.345176 0.646222 0.663381 -0.899678 -0.873028 -0.757201 -0.406159 -0.136922 0.447997 0.274448 0.873288 -0.035601 1.695117 0.877038 -0.595016 -1.867150 0.276917 -0.380126 0.203705 -0.046685 -0.144027 0.270643 -0.031268 1.016471 -1.355157 1.534128 -0.033951 -2.030604 0.398216 -1.103231 1.892349 0.699938 0.071389 0.337536 -0.949588 0.388395 0.985107 -0.248830 -0.561229 1.148311 0.825630 -0.424426 -0.202880 -1.223040 0.568686
*dt_88 -0.367335 -0.118178 -0.480413 -0.422900 -0.152074 0.100271 -0.816004 0.001124 0.424749 -0.081532 0.321481 0.671216 -0.902277 -0.297274 0.230869 0.579696 -0.337368 0.441704 0.394073 -0.167673 0.649540 1.009990 -0.667439 -0.148466 0.091548 -0.304710 0.784285 -0.630176 -0.499652 0.157459 1.156966 0.275332 -1.007349 0.442077 -0.225994 0.684600 -0.472660 0.419591 -0.138993 -0.779144 0.096785 0.676942 -0.256977 0.018986 -0.767358 -0.230910 0.251146 0.072461 -0.354302 0.302945
*dt_89 0.301876 -0.471302 0.081016 -0.754383 0.203479 -0.176399 0.628444 0.113494 0.898168 -0.741324 0.561556 -0.559877 -0.197372 0.145820 0.510259 -0.122328 -0.693084 -0.057705 -0.484641 0.340492 -0.174094 -0.308680 -0.473472 -0.458517 -0.216606 0.568570 0.145605 -0.221334 0.352455 -0.440130 0.356892 -0.112732 0.324224 0.746476 -0.537217 0.168130 0.514936 -0.515651 0.074283 -0.902145 -0.197312 0.077581 -0.031004 0.127595 -0.485328 -0.090299 -0.358096 -0.616156 -0.702753 -0.171813
*dt_90 0.015277 0.162881 -0.582552 -0.515831 1.187176 0.692427 0.597574 0.687482 0.861900 -0.953196 0.741173 -0.011894 -0.698346 -0.016410 0.218890 0.373494 -1.441407 -0.071889 0.176147 0.583921 0.264144 -0.322807 -1.532895 -0.676427 0.240888 -0.651452 0.236563 0.562320 -0.731489 0.384910 0.307005 -0.739117 0.395764 0.766812 -0.063612 0.059073 -0.761345 -0.720335 -0.199328 -1.577057 -0.825823 0.453779 -0.258485 -0.414039 -0.025578 -0.344345 -1.017604 -0.349579 -0.273206 1.576429
*dt_91 0.033795 1.391229 0.171592 -0.280657 -0.713457 0.416269 1.068810 1.113857 0.142205 -0.157269 -0.192534 0.565872 -0.057133 0.601474 -0.245196 0.546020 -0.039980 0.522949 0.638647 -0.045865 -0.658891 0.561611 -0.179959 1.143019 0.118957 -0.230877 -0.503258 0.118471 0.995750 -0.474444 1.948210 -0.286566 -0.384401 0.589047 0.025080 0.679684 -0.705475 0.233180 -0.085625 -0.863728 0.085416 0.886195 0.291889 0.475304 -0.893054 0.428228 0.167895 -0.867823 -0.199828 -0.500341
*dt_92 0.964722 0.264013 0.248721 -0.962852 -0.008166 -0.578741 0.104626 0.105500 0.658439 -0.768206 0.645364 1.042908 0.023838 -0.688930 0.291296 0.714419 -0.796084 0.765749 -0.520302 0.312245 -0.222418 -0.021922 -0.230993 -1.011576 -0.171691 -0.503971 0.618820 -0.480934 0.476883 0.923252 0.757604 -0.109576 -0.160808 1.288115 0.797662 0.671470 0.027398 -0.376996 -1.402943 -1.627622 -0.519379 0.487793 -0.247836 -0.429783 0.003837 -0.123632 -0.478397 -0.764027 0.024715 -0.821923
*dt_93 -0.969023 0.901195 -0.044412 0.796918 -0.271108 -0.226653 0.468081 0.842632 1.721266 0.188867 1.363696 0.592367 -0.615143 0.168784 -0.299552 1.208409 1.041699 0.529659 0.403687 0.553059 0.385273 1.384464 -0.839288 0.329290 -1.187269 -0.171528 -0.742672 -0.031583 0.562575 0.612522 0.808096 -1.537907 -0.109523 0.622935 -0.770642 0.541132 -0.169843 1.440911 0.053473 -0.397479 -0.736772 0.726834 -0.153935 0.750334 -2.199767 0.378701 -0.133454 -0.803760 -0.233052 -0.133166
*dt_94 -0.236372 0.792972 -0.033641 -0.409522 -0.095507 0.498536 0.691498 0.848773 0.349798 -0.784622 0.749549 0.398656 -0.225570 0.724375 0.581487 1.059512 -0.139123 0.527765 0.590037 0.748540 -0.217791 0.690125 -1.664918 -0.661135 0.367674 -0.091468 0.178557 -0.244576 -0.557438 -0.082805 0.436720 -0.344904 0.745818 0.293380 0.157163 0.515943 -0.217996 0.385878 0.191528 -0.743555 0.021998 0.491663 -0.025777 -0.192320 -1.135464 0.638661 -0.296024 -0.463202 0.376877 0.375040
*dt_95 0.515310 -0.423874 -0.195862 -0.548389 0.173401 -0.156637 0.118787 0.222921 0.277935 0.091329 0.327551 0.276974 0.189171 -0.029215 -0.212920 0.450772 -0.089696 0.509780 0.148017 0.075180 -0.791944 0.135037 -0.100692 -0.182787 0.094439 0.372869 0.479485 -0.267363 -0.062945 -0.185257 0.823900 -0.611464 0.422029 -0.151682 -0.176696 0.656704 -0.580213 0.151184 -0.189947 -0.392555 0.254291 0.805465 0.045381 -0.027460 -0.644278 0.541135 -0.257269 -0.090353 0.058875 -0.305878
*dt_96 -0.129940 -1.193321 0.173774 -0.524209 -0.543127 0.483691 0.205225 -0.083612 0.099432 0.087637 0.170650 0.052821 -0.527486 0.137001 0.425060 -0.238521 -0.623094 0.576107 -0.036734 -0.009114 -0.002651 0.855122 -0.426431 0.591773 0.583252 0.398386 0.706120 0.274898 0.197427 -0.873355 0.921239 -0.401210 0.287714 -0.114768 -0.880581 0.488094 -1.504534 0.925393 0.181980 -0.760249 0.525332 1.422719 0.759473 0.522315 -0.875389 0.341437 0.509543 0.348195 -0.003481 0.068714
*dt_97 0.359584 -0.416123 -0.311649 -0.507178 0.016367 -0.240284 0.253415 0.173342 0.069316 -0.225342 0.399961 0.142361 -0.203861 -0.160436 0.166866 0.358136 -0.239478 0.039729 -0.017463 0.014147 -0.531616 0.064755 -0.327590 -0.235877 0.208536 0.289253 0.218138 0.186999 0.396299 -0.086961 0.559175 -0.179191 -0.015649 0.180017 -0.199005 0.639623 -0.398024 0.079090 0.166312 -0.244403 0.072719 0.405708 0.121020 0.058586 -0.177594 -0.036444 -0.016409 -0.145500 -0.312418 -0.140742
*dt_98 0.433841 -0.736962 -0.582070 -0.269922 0.844451 -0.237741 0.653364 0.315974 0.370234 -0.464211 0.650680 -0.167532 0.300390 -0.136065 -0.075493 0.335792 -0.156534 -0.263977 0.703635 -0.030402 -0.154239 0.267070 0.360109 0.244223 -0.656231 -0.141418 0.208240 -0.097347 0.476234 0.252381 0.358685 -0.007106 0.456401 0.231647 -0.039180 0.396123 0.105549 -0.220165 -0.788165 -0.773216 0.475035 1.089599 0.033452 0.458044 -0.825230 0.633830 -0.578792 -0.639963 -0.700948 -0.477893
*dt_99 -0.079268 -0.146908 -0.621349 0.284730 -0.019193 -0.115263 0.247058 -0.021577 -0.429690 -0.392154 0.756337 -0.364320 -0.435046 -0.320672 0.987620 0.007620 -0.523450 -0.295791 0.609593 -0.298792 -0.408336 -0.042341 0.874308 0.195979 0.195817 0.505341 0.536464 0.267540 0.519285 0.214200 0.817913 -0.088953 -0.194807 0.219397 -0.758308 0.705593 -0.816063 0.245273 -0.133840 -0.384858 1.124117 1.496270 0.177333 0.487026 -0.982407 -0.238405 -0.466041 -0.482858 -0.877846 -0.598405
*dt_100 -0.696049 -0.221259 0.242037 -0.102668 -0.251560 0.076296 0.154989 0.450924 -0.150959 0.022807 0.453065 0.407946 -0.430075 0.214006 0.114973 0.715683 -0.401375 0.377679 0.263015 0.341680 -0.693276 0.063386 -0.164363 -0.147347 0.547264 0.469583 0.177256 -0.368355 -0.377088 -0.262999 0.424286 -0.082816 -0.310301 -0.172164 -0.639113 0.659306 -0.009932 -0.249273 -0.045382 -0.762870 0.720955 0.184200 0.312209 0.005451 -0.295853 -0.032736 -0.340089 -0.246475 -0.001901 -0.119700
*dt_101 0.747274 -1.800542 -0.385010 -0.502982 0.379208 -0.270063 0.192781 1.687184 0.685919 0.256279 1.303371 -0.533703 0.099749 -1.911696 -1.137344 -0.477050 0.289999 0.197390 0.904684 -0.245074 0.248524 -0.060067 0.244234 -0.317710 -0.989884 1.068223 -0.119683 0.155343 0.118831 1.375853 0.478338 0.088981 0.483318 0.448592 0.598864 0.570678 0.178340 -1.079695 -0.520280 -1.435074 0.825169 1.407864 -0.085230 0.464504 -1.695425 -0.056061 0.324904 -0.456584 0.123631 1.214370
*dt_102 -0.321243 -0.385641 0.008322 -0.450996 -0.013131 0.260095 -0.319425 0.338520 -0.346890 0.034480 0.373941 0.099463 -0.154324 0.601873 -0.396555 0.272140 -0.045851 0.810579 0.431216 -0.177496 -0.404729 1.264234 -0.341084 -0.226487 0.631869 -0.641982 0.456210 0.100355 0.275562 0.425228 0.704266 -0.854311 -0.340807 0.725960 -0.097263 0.952123 -1.073975 0.630027 0.458120 -0.046818 0.635140 0.773557 0.498990 0.735425 -0.554556 -0.146117 0.023577 -0.152132 -0.102784 -0.258006
*dt_103 -0.110958 -0.604402 -0.389059 -0.383832 0.370701 -0.221643 0.137071 0.356884 -0.000141 -0.565935 0.423969 0.412228 -0.316934 -0.260231 0.120058 0.691928 -0.494986 -0.108142 0.035979 0.084704 0.081935 0.182585 -0.550165 -0.080009 -0.367589 -0.017721 0.495259 -0.014491 0.514354 0.146782 0.442613 -0.341863 -0.304735 0.404848 0.081513 0.506961 -0.281617 -0.060435 0.251775 -0.838143 0.086540 0.469981 0.241955 0.293454 -0.645510 0.264694 -0.101644 -0.433304 -0.632479 -0.287692
*dt_104 0.798018 0.199747 -0.630146 -1.689040 1.637438 0.367278 0.448766 0.315176 -0.835368 0.140507 0.152050 -0.018686 -0.430580 0.793357 -0.602198 1.024396 -1.028622 0.622844 0.271203 1.180394 -0.231244 0.257489 -0.617414 -0.330137 0.682476 -0.451622 0.000119 0.728856 -0.580657 0.390784 0.629459 -1.665485 0.690618 0.438059 -0.580991 1.088082 -1.832587 -0.469352 0.470728 0.167462 0.239867 1.259939 0.398028 0.804251 -0.803575 0.069823 0.514745 -0.097150 0.072308 0.632157
*dt_105 -0.047936 0.057897 0.034024 -0.024131 0.044611 -0.098627 -0.100494 -0.245385 -0.369938 -0.052675 0.177173 0.219613 -0.358315 -0.104533 0.491268 0.358983 0.038379 0.121352 0.561470 0.025130 0.007442 0.239584 -0.134485 0.093080 0.062681 -0.373303 -0.222469 -0.142045 -0.087944 -0.047321 0.416954 -0.090136 -0.359778 -0.094724 0.285653 0.345451 -0.090321 0.046612 -0.027873 -0.371735 -0.008024 0.529741 0.270889 0.552981 -0.059658 -0.113833 -0.107926 -0.181851 -0.306245 -0.246139
*dt_106 0.442891 -1.371092 1.521357 -1.719798 -0.970212 0.320933 0.304619 1.468982 -1.392039 -2.244607 -0.196815 1.298085 -1.053336 -0.128931 0.657829 0.459803 -1.591603 1.240537 -0.570803 -0.192073 -0.417894 1.117681 -0.672914 -0.854896 0.623909 -1.175477 1.865830 -0.762978 1.963054 -0.233335 0.590318 -0.763883 -0.194644 -0.972358 -0.667324 0.095116 -2.457073 0.852516 0.966154 -0.946123 -0.229852 0.246543 1.347500 1.599316 -0.162174 0.351149 0.604888 0.374242 0.167993 0.336749
*dt_107 -0.073615 0.308255 -0.584697 -0.176971 -0.170426 0.199079 -0.615534 0.363987 -0.968034 -0.324654 0.333056 -0.232360 -0.535652 0.593866 0.937638 0.493498 -0.192484 0.976422 0.417181 0.584814 0.144932 1.380188 -0.399098 0.919119 0.521575 0.247050 -0.814762 1.493231 1.005796 0.041894 1.288329 -0.109087 0.368909 -0.749114 -0.526368 -0.332262 -1.671507 0.698896 0.302943 -0.098141 1.149307 2.120172 0.369194 1.002153 -0.600001 -0.697538 0.809504 -0.014987 0.487723 0.906687
*dt_108 -0.001778 -0.006213 0.025121 -0.563074 -0.049227 0.013185 0.166532 0.476364 0.074848 -0.238960 -0.018425 0.917670 -0.793291 0.970392 0.406516 1.805095 -1.177384 -0.038088 0.182322 0.538782 0.073209 0.946794 -1.317217 -0.008460 0.150373 0.169570 0.402731 0.568698 0.854184 -0.326629 0.664747 -0.330428 0.068290 0.024088 -0.069433 1.546265 -1.295551 -0.078275 -0.052905 0.099127 0.039746 0.363475 -0.262932 1.060495 -0.116893 0.795219 0.361653 -0.656839 0.226286 -0.385053
*dt_109 0.391418 -0.667018 -0.550260 -0.698085 -0.056695 -0.435151 0.283801 0.409893 0.044115 -0.196412 0.226722 0.438072 -0.064030 -0.339095 0.231119 0.339781 -0.656615 -0.186133 0.362892 0.033808 -0.693930 -0.025273 -0.030677 -0.418904 0.444448 -0.211468 0.325612 -0.152709 0.113327 -0.267074 0.816117 -0.446439 -0.819738 0.287184 -0.345775 1.079183 -0.521401 0.482128 -0.073868 -0.549169 -0.019338 0.732489 -0.551215 -0.350032 -0.321131 -0.213557 -0.348580 0.120782 -0.156512 -0.076493
*dt_110 0.179207 -0.187553 -0.355713 0.029885 0.359558 0.157394 -1.265566 -0.679910 0.447675 0.536784 -0.083172 -0.145119 -0.609470 0.846395 -0.988369 0.506137 -0.110413 0.475425 0.250484 0.001398 -0.002277 0.886058 -1.207481 0.478327 0.615138 -0.080276 0.936014 -0.358271 -1.173233 0.453408 0.929172 -0.791268 -0.230023 0.906163 0.305506 0.594925 -1.213277 0.688907 0.403375 0.124898 -0.051471 1.359784 0.047284 0.977323 -0.414416 -0.107103 0.330410 0.480774 0.271199 1.173949
*dt_111 -0.044602 -1.274949 0.513802 0.259207 0.617474 0.475399 -0.127366 -0.624680 0.097991 -0.057656 0.555082 -0.580394 -0.911336 0.393520 0.026449 1.110719 -0.614482 -0.465606 0.445567 -0.559348 0.963577 0.631926 0.192466 -0.495337 0.151090 -1.327397 0.138503 0.075154 -0.017175 -0.019804 0.784446 0.314451 -0.917599 0.519356 -0.727414 1.919288 -1.013922 0.719778 -0.135232 -0.571083 -0.524035 0.783991 0.261140 -0.495932 -1.854657 -0.620596 -0.179162 -0.292058 -1.461698 -0.135358
*dt_112 0.117347 -1.160002 -0.008154 -0.816281 0.307377 -0.361876 0.094069 1.318239 1.957349 0.137788 1.859850 -0.763657 0.063270 -0.197603 0.084349 0.851179 0.598891 1.759022 -0.018708 -1.017290 -0.057854 0.052181 -0.691550 -0.148689 -0.338789 1.034674 1.701366 1.082332 0.536305 0.474465 1.394140 -1.007315 -0.045346 1.720965 1.580487 0.995431 -0.471362 0.847661 1.218434 -0.975925 1.005738 1.631052 0.181573 -0.337379 1.929177 0.084326 -1.304537 -0.582035 -1.537208 0.034457
*dt_113 0.831620 -1.498353 0.022120 0.197898 0.299549 -0.276539 -0.150656 -0.677057 -0.595972 0.611742 0.970327 0.564249 -1.061216 -0.509490 -0.089708 0.594640 -0.485662 1.484981 0.718978 0.609206 0.532313 -0.037235 0.723094 0.038336 -0.301179 -0.383459 -0.072215 -1.427683 -0.533669 1.329950 0.495381 -1.629614 -0.104533 -0.428283 -0.001929 0.353322 -0.316696 -0.001918 -0.647368 -0.745688 -0.080315 2.861434 1.527007 1.326375 -1.825606 0.506186 -0.650747 -0.869048 0.044765 -0.156029
*dt_114 -1.558766 -0.259314 0.088522 -0.163325 0.028356 0.005387 0.147144 0.175906 0.324562 0.436147 0.953921 -0.212972 0.574474 0.626425 -0.824867 1.079297 0.776024 0.267748 0.051446 -0.775012 -0.099127 0.834498 -1.288787 -0.168588 -0.132960 0.137799 0.423543 0.656730 0.670512 0.712414 1.404871 -0.155130 -1.112860 0.987548 -0.357796 1.631195 0.382053 0.701320 0.460510 -1.367224 0.435507 0.411575 0.449650 -0.412944 -0.248916 -0.206199 0.084010 -0.408738 -0.823282 -0.299221
*dt_115 0.330770 -1.650782 -0.439964 -1.033774 -0.150163 -1.378069 -0.422702 -0.227784 0.670663 -0.306762 0.569239 -0.928188 -0.435841 0.614781 0.722080 0.134287 -1.573509 -1.687193 0.855083 0.819837 0.355154 0.325378 -0.056297 -0.095647 -0.959128 0.390396 1.114131 -0.257248 0.272431 0.952088 0.353395 0.392441 -0.444015 0.749338 -0.234473 0.759901 -1.190867 0.907534 0.287483 -0.869676 0.402083 0.412120 -0.620926 0.118983 -1.508521 -0.032227 0.605694 0.236248 -0.730044 0.044228
*dt_116 -0.430051 -0.412070 -0.169260 0.011421 0.900222 -0.342346 -0.140950 -0.328831 -0.163017 -0.054078 0.613850 0.023524 -0.648118 0.127311 0.040883 0.278315 -0.498564 0.390665 0.635886 0.352889 -0.544231 0.335542 -0.591454 -0.021820 -0.129979 0.066851 0.097721 -0.757301 -0.376439 -0.261317 0.644607 -0.304008 -0.430244 -0.413062 -0.400493 0.720805 -0.766034 0.164423 0.433662 -0.152026 0.169160 0.690640 0.349775 0.767512 -0.742812 -0.234436 -0.543811 -0.006924 -0.401106 0.245674
*dt_117 -0.337665 -0.380365 0.263148 -0.156382 0.015598 -0.218303 0.143135 0.246061 0.161383 0.259372 0.418367 0.260080 -0.037383 0.026784 -0.548719 0.277606 -0.447187 0.078005 0.121176 -0.060473 -0.569065 -0.048157 -0.209732 -0.047031 -0.121215 0.166027 0.082604 0.483346 -0.105950 0.584627 0.325626 -0.608145 -0.089534 0.076096 -0.234226 0.856462 0.045428 0.145350 0.125502 -0.265756 0.377149 0.616161 0.093971 0.202295 -0.764481 -0.323865 0.044201 -0.498154 -0.183623 -0.119317
*dt_118 0.089541 0.138948 0.194606 -0.365388 0.178124 -0.593170 -0.518523 -0.127779 -0.066649 0.382027 0.197968 0.347272 0.020206 0.200820 0.023659 0.047661 -0.180176 0.129090 -0.043196 0.515484 -0.361500 0.144519 0.491911 -0.265372 0.128453 0.478157 -0.085780 -0.080945 -0.384046 0.606717 0.251537 -0.900782 -0.256136 0.285231 -0.326130 0.369259 -0.643018 -0.066484 -0.089379 -0.541696 0.349251 0.510217 0.425302 0.133809 -0.500706 0.331467 0.292916 0.140930 -0.059976 -0.428715
*dt_119 0.326233 -0.433698 0.022754 -1.122661 -0.504227 1.130086 0.538379 -0.328553 -0.875568 0.684674 -0.279389 0.270120 -0.824520 -0.249911 0.179167 0.148152 -1.556839 0.194665 0.275537 0.774868 -1.495696 0.702388 -0.803818 -0.712623 0.488319 0.372462 0.450710 1.200193 -0.240295 -1.094980 1.984105 -0.506592 1.218440 -0.459105 -0.277611 1.288086 -1.226234 -0.133789 -0.051656 -1.089130 0.365896 0.871564 0.269254 0.083019 -1.343827 0.470796 1.112333 0.405555 0.443336 -0.056888
*dt_120 0.122552 -0.309068 -1.158206 -0.531065 0.880188 0.102512 -0.202046 0.282664 0.391632 -0.212383 0.548107 -0.901748 -0.077236 -0.841210 -0.203942 -0.148902 -0.000952 -0.178694 0.703770 -0.236379 -0.279862 -0.093004 0.308982 0.111731 -0.209565 0.547490 0.216937 -0.401517 -0.213390 1.036573 0.817622 -0.083226 0.577563 1.037102 -0.414514 0.074567 -0.079078 -0.225442 -0.133782 -0.460102 0.500474 1.020462 0.341207 -0.466830 -0.805408 -0.084551 -0.777749 -0.737299 -0.534019 -0.265586
*dt_121 0.034816 -0.670784 -0.168641 -0.249112 -0.138826 -0.396507 0.213283 0.323042 -0.184438 -0.718270 0.489330 0.169655 -0.256141 0.390504 0.433361 0.611736 -0.507538 -0.402100 0.264577 -0.049695 0.017813 -0.063740 -1.198843 -0.221978 -0.412357 0.211522 0.686459 -0.149051 0.023993 0.313563 0.550137 -0.005243 -0.079384 -0.148901 -0.737995 0.796274 -1.254212 0.079294 0.278992 -0.272011 -0.256811 0.064015 0.064871 0.393581 -0.359499 -0.249168 -0.531360 -0.638733 0.198827 -0.169918
*dt_122 -0.154224 0.025261 0.217388 -0.361733 0.327475 0.223555 -0.067233 0.315321 0.054994 -0.652229 0.931184 0.844720 -0.463820 -0.117936 -0.727120 1.268118 -0.483339 -0.307736 -0.192826 -0.024206 0.602033 0.203963 -1.295031 -0.425378 0.411180 0.020146 1.131171 0.535381 0.389745 0.567066 -0.001835 -0.671398 -0.571903 -0.564621 0.058724 0.716974 0.101820 0.218959 0.337960 -0.176868 0.035581 0.893052 0.965014 0.780357 -0.395206 0.148911 -0.323453 -0.885517 -0.168164 -0.523130
*dt_123 0.174609 0.024955 -0.168788 -0.123838 -0.236552 -0.148748 0.002164 0.276514 0.285999 -0.108105 0.087135 -0.045895 0.175954 -0.105949 -0.381847 -0.186678 -0.148015 -0.218153 0.298398 -0.116288 -0.174988 0.225290 -0.432609 -0.137444 -0.036938 -0.327644 0.318508 -0.248731 -0.153517 0.195084 0.769410 0.245095 -0.247065 0.666366 -0.158700 0.679942 -0.004378 -0.168043 0.101847 -0.812506 0.072978 0.271159 0.011610 -0.481634 -0.379001 -0.368716 -0.062161 -0.467619 -0.320589 -0.295873
*dt_124 -0.114672 -0.455431 -0.221087 -0.250895 0.114621 -0.264485 0.052563 0.057696 -0.027422 -0.035524 0.289627 0.181595 -0.037893 -0.114056 -0.114883 0.465549 -0.143251 -0.043913 0.304265 -0.130161 0.025034 -0.029103 -0.367926 -0.209089 -0.227933 0.100065 0.428209 0.232894 -0.017083 0.167254 0.527593 -0.082293 -0.108602 0.413199 0.002617 0.614374 -0.249627 0.089319 0.199944 -0.587221 0.206604 0.382400 -0.078087 -0.394938 -0.628199 -0.224585 -0.028245 -0.412745 -0.331414 -0.206316
*dt_125 0.141849 -0.351461 0.006496 -0.752632 -0.265816 -0.003184 -0.156890 -0.084882 0.412868 -0.175888 0.574653 -0.466807 0.054309 -0.124943 -0.411532 0.088503 -0.263614 0.176341 0.084653 0.056480 -0.084637 -0.010522 -0.418484 -0.345975 -0.273949 0.232454 0.033901 0.097296 -0.175140 0.544987 0.336428 -0.227780 0.331467 0.516134 -0.755874 0.488379 -0.192003 0.154082 0.140454 -0.442883 0.167842 0.440835 0.395463 0.130139 -0.947878 -0.811308 0.017071 -0.595979 -0.030959 0.053507
*dt_126 0.318892 0.731884 0.000224 -0.853709 -0.443548 -0.675789 -0.191801 0.942920 0.997846 -0.473016 0.083668 0.347194 0.209045 -0.424556 0.712702 -0.355654 0.039019 0.277449 0.335925 -0.345541 -0.318658 0.161886 -1.189390 0.507228 -0.692476 -0.723329 -0.903432 -0.697009 0.249875 1.068313 1.584018 -0.113030 -0.632206 1.002342 0.219356 0.372908 -0.219664 -0.156284 -1.021217 -0.968123 -0.480590 1.116768 -0.227685 0.543068 -0.205227 0.491961 -0.058643 -0.355626 -0.490756 0.385415
*dt_127 -0.187936 -0.232815 -0.074094 -0.225254 0.017820 0.234489 0.399841 0.401507 -0.178176 -0.349723 0.364588 0.143713 -0.469583 -0.365930 -0.301152 0.217465 -0.160344 0.325570 0.143043 -0.375760 -0.161914 0.249959 -0.357810 -0.060708 0.183906 0.118554 0.235571 0.009719 0.414924 0.108840 0.316785 -0.226671 -0.077988 0.221915 -0.155310 0.514871 0.083421 -0.351152 -0.038328 -0.623172 0.177306 0.049340 0.075973 0.353540 -0.193450 -0.140373 -0.196707 -0.159433 -0.287295 -0.248251
*dt_128 0.134319 0.864083 0.324054 -0.912233 -0.374241 0.552370 1.024407 1.535505 0.857728 -0.869692 -0.185874 0.322066 0.008080 -0.164107 1.185059 1.038593 -1.554925 -0.730752 -0.631765 -0.034016 0.572966 -0.041307 -2.609870 0.618049 -0.854399 0.286946 0.708389 1.237205 1.569758 0.565163 2.138088 0.921904 0.507260 -0.449222 -1.298143 0.286663 -0.610881 -1.550798 -0.636453 -0.807521 -0.350845 -0.626724 1.004754 0.394013 -0.925056 -0.641115 0.045391 -1.831604 -0.320028 -1.276678
*dt_129 -0.343893 -1.433946 -0.412343 -0.041471 0.849056 0.034799 0.059281 0.854726 1.746677 -0.859357 0.657564 -0.876383 -0.246591 -0.595212 -0.831141 -0.753005 0.489168 0.578703 1.003976 0.856442 0.614668 -0.138115 -0.192268 0.333322 -0.189255 1.703212 0.245377 -0.276608 -0.179228 1.074436 0.468507 -0.638337 -0.725524 0.357507 0.349567 -0.385283 -0.185751 -0.821201 0.778880 -0.694519 -0.603181 1.072321 0.630376 0.580925 -2.114277 -0.766501 -0.618625 -0.327792 -0.201387 0.420470
*dt_130 0.156442 -0.333488 -0.572897 -0.174983 0.168997 -0.470630 -0.045829 0.280201 0.508654 -0.415976 0.489261 0.194496 -0.385012 -0.538328 -0.019410 0.337520 -0.214704 0.043088 0.292770 -0.107864 0.106590 0.248478 -0.247243 0.049000 -0.346302 0.073455 0.333561 -0.026483 0.101572 0.590233 0.551540 -0.261599 -0.690770 0.345841 -0.146186 0.569355 -0.314483 0.011979 -0.232194 -0.296221 -0.452525 0.647495 -0.103081 0.162361 -0.508253 -0.404904 -0.182760 -0.205458 -0.662099 -0.225495
*dt_131 0.405751 -0.468214 -0.623216 -0.540053 -0.090382 -0.572856 0.173293 0.655848 -0.000325 -0.419528 0.326995 0.405497 -0.112496 -0.118453 0.358134 0.132754 -0.785226 -0.119303 -0.077462 -0.157197 -0.903183 0.453849 0.062961 -0.251939 0.241031 0.067033 0.717781 -0.515209 0.085918 0.182677 0.678890 -0.561239 -0.036334 0.350164 -0.709688 0.787562 -0.054968 0.628504 -0.037444 -1.047335 -0.117085 0.845447 -0.047802 -0.402448 -0.751459 -0.241280 -0.371279 -0.106401 -0.920894 -0.264964
*dt_132 0.232406 0.067473 0.116240 -0.107638 0.153937 -0.412660 0.272627 0.461388 -0.100855 -0.210828 0.350315 0.134464 0.020647 -0.084387 -0.174052 0.178729 -0.144686 0.138794 0.170935 -0.061570 -0.185498 -0.209113 -0.280365 0.045597 -0.254402 0.338365 0.142524 0.036588 0.368664 0.284292 0.475894 -0.260349 0.217905 -0.271311 0.198302 0.067121 -0.143890 -0.172072 0.056067 -0.378198 0.103737 0.975552 -0.047830 0.397444 -0.497004 0.142200 -0.142599 -0.130047 -0.025907 -0.014349
*dt_133 0.032560 -0.453901 0.205404 -0.854965 -0.013823 0.168654 -0.570801 0.253353 0.490938 0.259421 0.398628 0.377758 -0.971615 -0.973267 0.730973 0.814868 -0.446059 0.331576 0.199043 0.284835 -0.417196 0.105343 0.582029 -0.572861 0.809622 -0.160648 0.017161 -0.043221 -0.178444 0.191439 0.258331 -0.738144 -0.419161 0.101861 -0.366394 0.781519 -0.306090 -0.117421 -0.158371 -0.106671 -0.229541 0.827910 -0.380797 0.469403 -0.387002 -0.770945 0.472031 -0.119847 -0.319181 -0.026684
*dt_134 0.551429 -1.110242 1.847272 -1.822714 1.404671 -1.899243 0.499495 -0.050921 -1.454211 0.537228 0.736683 -1.265138 0.679994 0.708479 -1.254164 1.653725 1.688761 2.377425 0.445683 -1.006538 -1.269979 1.024756 -1.474758 -0.353066 -0.542576 -0.447767 0.394137 0.815538 0.945021 0.213664 2.518986 1.029411 -0.839062 0.597385 -0.730492 3.421819 -0.152900 0.139166 -1.187536 -3.008036 0.370685 1.454392 -0.234585 -0.420747 3.357142 0.610183 1.709496 -0.920807 -0.381794 -1.575846
*dt_135 0.515644 0.030873 -0.258581 -0.501313 -0.149558 -0.082960 0.194330 0.110475 0.478625 -0.450731 0.336637 0.356715 -0.135022 -0.626272 -0.469976 -0.005505 -0.211837 -0.477977 0.248765 -0.172157 0.033516 -0.076803 -0.198174 -0.032573 -0.219698 0.646779 0.597906 -0.315406 0.083813 -0.075630 0.557094 0.099847 0.310677 0.241052 0.060515 0.655964 -0.179385 -0.155814 -0.110029 -0.743461 -0.235824 0.377946 0.048859 -0.247276 -0.898277 0.275666 0.031630 -0.387763 -0.081421 -0.364793
*dt_136 0.122633 -0.340206 0.165413 -0.140335 -0.270635 -0.162299 0.084945 0.124095 -0.142825 -0.188308 0.434052 -0.098034 -0.121901 -0.270710 -0.365415 0.218866 0.025228 0.103297 0.320403 -0.470866 -0.074251 0.186357 0.013824 0.204565 -0.440135 0.376872 0.197934 -0.027062 0.345848 0.092888 0.469965 0.002209 0.070592 0.135577 0.072557 0.446327 -0.057596 0.268835 -0.180916 -0.789582 0.187774 0.740546 0.268967 -0.080637 -0.447091 0.361837 -0.102186 -0.345546 -0.379617 -0.272253
*dt_137 0.752602 0.010991 0.402151 -0.289961 -0.037606 -0.418161 0.451429 -0.045189 -0.033516 -0.769191 0.419020 0.128913 -0.040330 0.574290 -0.085654 0.965705 -0.865112 0.544805 0.189884 0.256143 -0.691494 0.180533 -0.730884 0.065511 -0.052882 -0.698337 0.630016 0.015579 0.411773 0.136835 0.656208 -0.585127 -0.170077 0.298695 0.036963 0.601623 -0.662087 0.564819 -0.175875 -1.141019 -0.115226 0.924931 -0.314403 0.382350 -0.333664 0.310760 -0.014352 -1.000403 0.293531 -0.171621
*dt_138 -1.011558 -0.484349 0.518702 -1.084635 2.716133 -0.502225 2.486666 1.948459 3.736385 0.549598 0.096097 0.420884 0.533783 -0.185018 -1.755836 -0.310532 0.347016 -0.186146 -1.482911 -1.384329 0.127473 -0.341280 -1.492895 0.079399 0.719512 1.449251 2.800690 -0.635302 1.860669 0.238997 0.856668 1.031703 -0.151813 3.125432 -0.581937 0.954532 1.386465 -1.770604 -1.355240 -2.998347 -1.114803 -0.157231 0.771914 -0.978012 -0.128341 -1.443112 -0.583252 -1.348453 -1.863144 0.619076
*dt_139 -0.742618 -0.007915 0.151913 -0.516722 0.473185 0.028130 0.259164 1.062328 -0.297342 0.221843 0.877344 0.132180 -0.310486 -0.234913 0.743940 1.637717 0.088681 0.778849 0.300916 -0.391280 -0.946958 0.363002 0.721460 -0.069990 0.197272 -0.116851 0.295462 0.185420 0.321553 0.758876 0.789306 -0.899063 0.608560 0.161981 0.127960 0.052728 -0.418665 0.365617 0.262925 -0.270534 0.041678 0.848681 -0.627559 0.502360 -0.986085 0.830937 -0.075807 -0.399170 0.192079 -0.306290
*dt_140 0.768186 -0.549091 -0.688491 -1.100457 -0.175858 -0.251351 0.249219 2.464749 1.972448 -0.674747 0.608917 0.912326 -0.643021 -2.369824 -0.141653 0.077351 0.144957 -0.111419 0.178085 -0.736948 0.598226 -0.953784 -0.478710 0.208811 0.331317 1.676277 -0.387676 -0.862852 -0.331713 0.309876 1.221798 0.091004 0.231633 2.592431 2.294769 -0.170619 -1.163539 -1.555285 -0.889461 -2.128646 -1.472782 0.756542 0.075309 0.051372 -0.178412 0.015444 -1.235265 0.021117 -0.276183 1.094905
*dt_141 -0.375581 -1.530315 0.158488 -0.360672 1.686660 -0.140883 0.344886 1.228631 -0.812687 -0.361262 -0.831792 -0.597546 0.135977 0.374309 1.943468 1.094316 0.076043 1.338225 0.153547 0.460042 -1.306565 0.915745 -1.779101 0.475525 1.615962 0.379139 -1.243175 0.863525 0.981370 0.540092 0.470721 -1.007869 -0.886797 0.394449 -0.346850 0.372603 -0.588301 0.064785 0.555105 0.234704 0.529976 1.512633 0.893024 1.387979 -0.323920 -1.098642 0.294584 1.128394 -0.292265 0.616237
*dt_142 0.305441 -0.344771 -0.262891 -0.346970 0.022303 -0.178510 0.615886 0.688989 0.307184 0.049951 0.085131 0.068980 0.186590 0.056221 0.067409 0.123463 -0.479085 0.099251 0.237417 0.025774 -0.781767 0.232593 0.152614 0.128409 -0.036984 -0.193262 0.168400 0.009188 0.459707 0.131511 1.105152 -0.505221 0.526300 0.054627 -0.252732 0.332535 -0.499149 -0.008258 -0.001521 -0.760683 0.089758 0.701708 0.037160 0.130332 -0.957832 0.075595 0.057395 -0.146548 -0.335092 -0.273149
*dt_143 0.173694 -0.590792 -0.857937 -0.073612 0.470598 -0.281769 -0.386913 0.016344 -0.605109 0.226961 -0.076596 0.554606 -0.081314 -0.308798 -0.533740 0.410914 -0.205727 1.223868 0.378548 -0.208766 -0.672773 0.516675 0.646547 0.984793 0.347822 0.246480 1.175792 -0.084087 0.802412 0.156130 0.399537 -1.925664 -0.140070 0.068928 -1.220985 0.870670 0.006833 0.602869 0.570192 -0.014491 0.674528 1.136568 0.629006 0.949501 -0.769379 0.903413 0.098578 -0.019951 -0.121538 0.405339
*dt_144 -0.297984 -0.158586 0.160510 0.216592 -0.026416 -0.183832 0.525778 0.531111 0.544906 -0.469463 0.446734 0.341575 -0.364726 -0.272408 0.258061 -0.041237 -0.437941 -0.041175 0.333497 -0.004578 -0.195268 0.363648 -0.726312 -0.420807 -0.291287 0.368701 0.388542 0.045302 0.023475 0.530534 0.935197 -0.139600 -0.137434 0.437715 0.012412 0.556910 -0.658139 -0.398500 -0.065742 -0.481724 0.145895 0.152087 -0.154903 0.263638 -1.098670 0.180839 0.140651 -0.080386 -0.050979 0.237585
*dt_145 0.281372 -0.666200 0.193087 -0.379372 -0.279825 0.201765 0.347779 0.553872 -0.713094 0.102114 0.583207 0.132557 -0.312111 -0.523972 -1.383843 1.329608 0.171369 0.063724 0.346057 -0.189433 0.599828 -0.672265 0.081652 0.179845 0.157415 -0.095451 0.870173 -0.438702 0.435688 -0.257631 1.252902 -0.024940 0.353068 0.333805 -0.062713 0.513708 -0.864675 -0.241475 0.317769 -1.302854 0.283966 0.505843 0.681706 0.665798 -1.282735 0.120044 -0.060173 -0.618592 0.570198 -0.958680
*dt_146 -0.469713 -0.754425 -0.103436 -0.386010 0.276117 0.749279 -0.030763 1.085201 0.088889 -0.198785 -0.085966 1.144540 -0.613907 -0.797847 0.433705 0.510394 -0.470169 1.564451 -0.113816 -0.541311 -1.151325 1.312017 -1.070585 0.403672 0.919994 -0.350416 0.297301 0.085785 1.305325 -0.475593 1.350930 -0.786214 -2.142604 0.620462 -0.850264 1.132422 -0.933505 -0.151982 0.468450 -0.509474 -0.231928 0.386803 0.546990 0.271997 1.185735 -0.511126 -0.246539 1.145411 -1.213764 1.039865
*dt_147 -0.594252 0.050230 0.099667 -0.134085 0.092528 -0.163669 -0.148762 0.234226 0.577116 0.284407 0.020377 0.704973 0.102428 0.211581 0.473256 0.342218 -0.178310 0.352648 0.169630 0.136676 -0.634894 0.423351 -0.735504 0.108622 -0.562813 -0.042427 0.410991 0.407476 0.495390 -0.222593 1.638833 -0.222118 0.052192 -0.108525 -0.336704 0.667179 -0.246416 -0.064932 -0.602470 -0.412925 -0.181383 0.694092 -0.652200 -0.534252 -0.759494 0.002900 0.879831 0.165294 0.518062 -0.338790
*dt_148 -0.387127 -1.142317 0.093629 -0.712704 -0.854488 0.830507 -0.329371 -0.432559 -0.067327 -0.272809 0.423991 0.520745 -1.704460 -0.037993 0.409287 0.585950 -1.114164 0.033808 0.001859 0.926204 -0.167612 1.571791 -1.127181 0.771283 0.310124 -0.513082 0.065336 0.728942 0.353105 -0.283601 2.074721 -0.021218 0.831360 -0.510777 -1.127676 0.051300 -2.954392 1.440780 0.254029 -0.517594 -1.528815 1.522709 -1.010381 0.621604 -2.263424 -1.135673 1.857217 -1.553136 0.699295 0.440709
*dt_149 -0.050746 -0.354636 -0.705276 -0.347441 0.296763 0.287711 -0.094167 -0.140434 0.003365 -0.301667 1.069250 -0.150649 -0.561854 0.510266 -0.269177 0.158853 -0.297066 0.114965 0.324108 0.243538 -0.304301 0.770209 -0.783162 -0.333779 -0.441432 0.221788 0.580277 0.017147 -0.249242 -0.062698 0.756390 -0.225996 0.691319 -0.408900 -1.017835 0.451020 -1.459980 0.943872 0.383063 0.230496 0.336021 1.709681 0.156612 0.885912 -0.671684 0.719559 0.238952 -0.216196 -0.498733 0.010074
*dt_150 -0.009277 -0.552520 -0.241620 -0.359839 0.317209 0.094848 0.224876 0.166436 -0.241012 -0.145400 0.520444 -0.294174 -0.156654 -0.230493 -0.451349 -0.019099 -0.003737 -0.094801 0.327266 -0.218472 -0.375390 -0.331932 0.091556 -0.032317 0.203818 0.283609 0.270862 -0.094608 0.326007 0.108192 0.543455 -0.190525 0.477157 0.124803 0.051756 0.648907 -0.295680 -0.134240 -0.031579 -0.747187 0.491224 0.712238 0.085866 0.152082 -0.905144 0.106607 0.078177 -0.530065 -0.204163 -0.420588
*dt_151 -0.172116 -0.025776 0.140655 -0.137716 0.161332 -0.053951 0.154409 0.404729 0.358569 -0.145388 0.267795 0.018592 -0.079709 -0.289444 0.180522 0.059979 0.053663 0.212033 0.246980 0.078743 -0.321031 0.192661 -0.368118 0.198408 -0.210995 0.458623 -0.207179 -0.106854 0.009099 0.167499 0.487033 -0.371637 0.066895 0.095204 -0.223343 0.021819 0.003568 -0.079974 -0.055288 -0.149081 -0.116262 0.633004 0.243702 0.451805 -0.427507 0.086779 -0.355524 -0.444409 -0.112753 0.035668
*dt_152 0.299006 -0.487706 -0.273258 -0.700637 -0.389481 0.181744 0.056933 -0.080036 0.224067 0.035027 0.729258 -0.079219 -0.207565 0.033641 0.136507 0.202343 0.047775 0.377039 0.014631 -0.247704 -0.224903 0.393649 -0.516231 -0.261466 -0.040292 -0.361236 0.027659 0.225217 0.037585 0.680675 0.518897 -0.418214 -0.039425 0.679680 -0.390172 0.511208 -0.279061 0.479765 0.443674 -0.220650 -0.178726 1.071012 0.227343 0.207623 -0.725581 0.360495 -0.044381 0.219100 -0.606433 -0.307333
*dt_153 0.139808 -1.555911 -0.776409 -0.845241 0.592024 0.066017 -0.378722 -0.144182 -0.700857 0.066936 0.853779 -0.552116 0.090324 0.794454 -0.057968 1.168922 0.586269 1.189201 0.756768 -0.513257 -0.213742 1.241004 -0.623941 -0.204463 0.223845 -0.714446 1.208863 0.309824 0.109737 -0.613327 1.388061 -0.873487 0.149261 0.343045 -1.605996 1.143276 -0.735053 1.069119 1.083709 -0.984511 0.474536 1.445922 -0.424236 -0.550877 -0.440757 -0.487097 0.512689 0.835173 0.383886 -0.701931
*dt_154 -0.375130 -2.175529 -0.833104 -1.989958 3.014631 -1.551096 -0.530094 2.467370 -1.447068 -0.184992 0.029744 0.435535 1.603260 -0.492172 -0.427578 -0.489192 0.113539 2.115231 0.665840 0.496488 -0.761409 1.019346 1.064445 -0.759912 -0.281145 1.044072 -1.275183 0.972573 0.298821 1.794728 -0.868023 -2.965579 -0.992486 1.423246 -0.842013 2.342120 -0.107325 -1.121022 1.480482 2.634745 1.818709 3.474996 -0.017049 1.845345 0.338664 3.179357 -0.315190 2.478361 -1.251752 0.986213
*dt_155 0.435059 0.078291 0.100558 -0.117665 -0.026432 -0.316857 0.028541 0.213755 -0.090772 -0.581181 0.469045 0.210165 -0.539261 0.099337 0.056781 -0.202368 -0.642259 -0.296841 -0.087326 0.410560 -0.017407 -0.613121 -0.267858 0.099137 -0.321368 -0.029563 0.450078 0.006680 -0.076949 0.441267 0.802612 -0.721156 0.315059 0.346181 0.788478 -0.261814 -0.114191 -0.597527 0.499497 -0.922562 -0.137940 0.562568 0.242065 0.386154 -1.236841 0.225188 0.025334 -0.280754 -0.017558 0.362430
*dt_156 -0.979045 -2.114042 -0.667858 -2.109670 1.729128 -0.279188 -1.055613 -0.414258 0.023280 -1.747282 -0.406526 -1.366875 -0.474450 -0.667861 -1.273819 -0.259080 0.317018 2.476930 0.224697 -0.991567 1.503482 2.196780 -4.098798 0.550662 -1.515855 0.126866 -0.040170 1.182554 -2.494194 0.556545 2.987086 1.887492 1.069788 0.546780 0.851542 1.685944 -3.263355 -2.458390 -0.222586 0.843533 1.625249 2.190553 2.175750 1.341458 3.150167 -1.359194 -0.176275 -0.394931 -1.267647 -0.339244
*dt_157 0.698780 -0.918585 0.233996 -0.127916 1.624183 -0.555945 0.750974 0.698020 0.314882 0.505576 -0.129293 -0.294540 0.092759 -0.885199 0.711778 0.461273 -0.149869 -0.075869 0.759599 0.019093 -0.572266 0.034258 0.661167 0.540731 -0.618002 -1.153028 0.512314 -0.867442 1.097228 0.552006 1.260924 -0.139715 0.370845 -0.045050 0.062151 0.182540 -0.748953 -0.245986 -0.647752 -1.041764 -0.390662 1.092564 0.232751 0.694447 -0.997074 0.126084 0.108104 0.242374 -0.378235 -0.640974
*dt_158 -0.253373 -0.378014 -0.125881 -0.443458 -0.037189 0.175323 0.198727 0.032092 0.184206 -0.409846 0.336870 0.050534 -0.498277 0.142825 0.066624 0.089935 -0.485665 0.248039 0.120987 0.103158 -0.214897 0.432573 -0.163479 -0.041575 -0.175828 -0.042831 0.255961 0.254518 0.140837 0.355715 0.622678 -0.095928 0.247128 0.119693 -0.689702 0.450857 -0.262398 0.117108 0.179867 -0.384675 0.071219 0.238133 0.033430 -0.060800 -0.587243 -0.139319 0.253079 -0.199951 -0.102113 -0.271678
*dt_159 0.771900 0.280202 -0.687223 -1.199769 0.738874 -1.570544 -0.280260 0.793669 -2.070266 -0.767090 0.370749 0.386464 -0.091450 1.515256 -0.112895 1.355069 -0.081797 -0.038750 0.278951 0.725040 -1.175356 0.175771 -1.142097 0.709261 0.193591 0.755045 0.227009 1.019219 -0.253670 -0.354775 0.914011 -1.586577 0.062143 0.256503 0.861241 0.435325 -1.384472 1.793719 1.685379 0.645555 1.672602 3.265089 0.082772 1.728313 0.462755 1.288207 0.374781 0.063833 -1.035332 -0.137650
*dt_160 0.069357 -0.576658 -0.028292 -0.234093 -0.144094 0.085526 0.117755 -0.105177 0.016508 -0.199428 0.415571 -0.128444 -0.227085 0.023896 -0.212173 0.123402 -0.304409 -0.200377 0.155640 0.118602 -0.263170 0.068138 -0.088815 0.233989 -0.097101 0.114812 0.617938 -0.084917 -0.104567 -0.047960 0.350751 0.052594 0.160470 0.210897 -0.163070 0.449246 -0.404169 0.229030 0.126698 -0.519207 0.330301 0.706903 0.232395 0.412330 -0.845487 0.105345 -0.144903 -0.236771 -0.313739 -0.447263
*dt_161 -0.995370 -0.233883 -0.124698 0.052907 -0.092995 0.151464 0.550941 0.477054 -0.083255 -0.636724 0.821997 0.838554 -1.081174 0.084829 0.244394 0.084465 -0.794397 -0.540108 0.682040 0.325111 0.675817 1.011285 -0.928470 0.112623 0.415377 0.022198 0.631553 -0.098294 0.327704 0.398987 0.118758 -0.159353 0.021913 -0.408923 -0.506368 0.527062 -0.431988 0.466398 0.428758 0.010184 0.286628 0.873836 0.035646 1.170738 -1.020301 -0.329449 0.185870 -0.682317 -0.356970 -0.363379
*dt_162 -1.094735 -2.149403 -0.618149 -1.357402 0.839458 0.111171 -0.033814 -0.161310 -0.384026 0.680125 0.510402 -0.504072 0.099817 1.196534 -0.286489 0.652390 -0.278379 1.080369 -0.121499 0.198706 1.110588 0.307528 -0.024033 0.220229 0.489429 0.198609 1.653684 -0.344616 -0.348015 0.981940 0.406658 -0.570194 -0.349897 0.359555 -0.289130 0.317792 -1.476224 1.125266 -0.260750 -0.543468 0.797211 1.088767 0.501080 0.582409 -0.533113 -1.515354 -0.166779 0.006142 -0.136287 -0.348884
*dt_163 0.177653 -0.527528 0.133158 -0.576986 0.202469 -0.224262 0.025963 0.407055 0.099066 -0.416131 0.243993 -0.244049 -0.185071 -0.281893 -0.220767 0.438362 0.165760 0.148845 0.284378 -0.093853 -0.633385 -0.296408 -0.288677 -0.112311 0.133620 0.364821 0.223601 -0.547635 -0.150384 0.527682 0.414445 -0.236047 -0.292481 0.331047 -0.041389 0.425665 -0.108267 -0.088189 -0.014769 -0.652759 -0.003465 0.673520 0.215784 0.023302 -0.386256 -0.242490 -0.282377 -0.058043 -0.351289 0.034933
*dt_164 -0.268189 -0.026296 0.406254 0.250487 0.107168 -0.229471 -0.428921 0.098390 -0.521569 -0.241456 0.329396 0.601574 -0.373608 -0.436761 0.202112 0.080744 -0.104885 -0.139484 0.060069 -0.186605 0.712145 0.446715 -0.206409 0.209455 -0.057540 0.302935 0.600821 -0.135709 -0.181524 0.442831 0.330577 0.597701 0.110678 -0.397197 0.197534 0.629808 -0.530629 0.304316 -0.124295 0.070761 0.187810 0.148905 0.266027 0.150016 -0.234408 0.034051 0.302872 -0.334586 0.360771 -0.322939
*dt_165 -0.118976 -0.108588 -0.295778 -0.384960 0.481879 -0.017679 0.296140 0.533450 0.350721 0.107258 0.510332 -0.002609 -0.219056 0.118711 0.000530 0.446754 -0.159905 0.261811 0.541922 0.214976 -0.043845 0.042936 -0.301636 -0.082771 0.121244 0.119007 0.368415 0.091167 0.103149 0.423388 0.722175 -0.371629 0.100329 0.051841 0.039358 0.203374 -0.594640 -0.113597 -0.063478 -0.245096 0.104772 0.904438 -0.195189 0.588914 -0.606612 0.084657 -0.366087 -0.185247 -0.157363 -0.232586
*dt_166 0.090024 -0.365998 -0.049254 -0.342035 0.314837 -0.220535 0.207714 0.248735 -0.046215 -0.038082 0.285305 -0.109889 -0.202743 0.009955 -0.262396 0.425799 -0.049215 0.357951 0.191637 -0.005628 -0.105156 0.156631 -0.241596 -0.041234 -0.065800 0.077738 0.449076 -0.003340 0.174333 0.127233 0.580557 -0.336106 -0.096597 0.232709 -0.059688 0.367746 -0.198083 -0.017068 0.062323 -0.460628 0.092324 0.560656 0.159103 0.333275 -0.362638 -0.017703 -0.247771 -0.118918 -0.338955 -0.316064
*dt_167 -1.877622 -0.670394 -0.993697 -1.438881 1.410765 0.133009 1.104077 1.299792 0.398042 0.522000 -0.340816 -0.801702 -0.130976 0.562697 0.070442 -2.122140 -1.696348 1.598883 -0.397781 0.200767 -0.591903 1.853857 -1.227103 -0.981313 0.344934 0.853205 -0.446587 1.888549 -0.415052 -0.664971 1.625258 -0.052579 -0.352555 -0.290612 -0.394512 2.044344 -1.509319 0.398188 1.556262 -0.114717 1.770241 1.162643 0.806561 -0.824408 1.347960 0.405295 1.056905 0.748038 -0.848101 -0.193838
*dt_168 1.003249 -0.218921 -0.743611 -1.033620 0.158853 -1.171857 0.711747 0.781188 0.344611 -0.523982 1.273960 -0.025985 -0.099877 -0.836980 -0.324445 0.819300 -0.220416 -0.467660 0.252662 0.188072 0.508393 -0.235028 0.178886 -0.558457 -0.044274 0.410198 0.282491 -0.094903 0.032007 0.356170 1.070066 0.425734 0.904840 0.716953 0.058170 0.680001 -0.557212 -0.005950 -1.296592 -1.974939 -0.380204 1.731976 -0.075991 0.119491 -1.292201 -0.826987 -1.279742 -0.985773 -1.154115 -0.289778
*dt_169 0.202543 -0.084992 0.319656 -0.515775 0.616332 0.279433 0.639089 0.161447 0.416871 -0.280692 0.767318 -0.012599 0.422746 -0.355317 -0.312663 0.327185 0.045484 -0.038822 0.356360 0.134456 -0.032430 -0.007227 -0.353342 -0.611463 0.090883 0.327526 0.583199 0.122235 0.621102 -0.346113 0.762805 0.126652 0.464641 0.388076 0.741566 0.812678 -0.412232 -0.284445 -0.549345 -0.628227 -0.228586 0.606062 0.142456 0.035749 -0.962642 0.146482 -0.249150 -0.721727 -0.590573 -0.416976
*dt_170 0.192330 -0.142958 0.356350 -0.041231 -0.237775 -0.225656 -0.002274 -0.219199 0.180330 0.376567 0.320467 0.074773 0.236873 -0.133276 0.169609 0.126596 0.024667 -0.015824 -0.206602 -0.169967 -0.469467 0.029206 0.175450 -0.202912 0.156506 0.061846 -0.273638 0.233952 -0.171095 0.274803 0.571921 -0.362042 -0.277416 0.197629 -0.339943 0.366370 -0.478026 0.505629 -0.055810 0.017400 -0.125429 0.537560 0.274074 -0.392584 -0.517900 -0.171380 0.061171 0.224778 0.046279 -0.010606
*dt_171 1.236361 -0.072607 -0.502750 -0.049357 0.628428 -0.677931 -0.324015 1.565015 -1.262323 0.200003 0.294951 -0.378401 -0.406505 0.468964 -0.004836 0.989383 -0.566185 1.074748 0.118174 0.009296 -1.001834 1.700557 -0.929642 -0.786613 1.163992 0.619024 0.731382 0.508241 1.418429 0.016468 1.206726 -1.928051 -0.043011 -0.429213 0.422603 0.983092 0.728615 -0.048722 1.355057 1.112592 0.906442 2.329195 -0.889531 0.618804 -0.053908 1.357847 0.508605 0.204743 -0.112639 -0.775810
*dt_172 -3.383252 2.463981 -1.279047 -0.590986 0.565571 1.081220 -0.161251 0.014971 -0.016661 0.122403 1.282459 -2.051629 -0.204857 -0.724554 0.818821 -1.146013 -0.328067 2.563394 2.000841 0.055302 0.060797 2.319210 -0.783034 1.727262 -0.213813 0.774045 0.088162 1.994670 -1.901257 -0.879589 2.745635 -0.217667 0.251976 1.464883 -0.527091 1.142114 -0.505846 1.374704 1.104682 1.710800 1.581469 4.614960 -1.610972 1.182436 -0.188577 0.872845 1.169424 -0.022543 0.568424 -1.836128
*dt_173 -0.226091 -0.091099 0.294184 -0.191105 0.053862 -0.005547 0.071726 0.492762 0.109943 -0.147490 0.543719 -0.138027 -0.449314 0.030452 -0.331685 0.658652 0.062803 0.664733 0.635228 0.208632 -0.661562 0.310874 -0.391403 0.169454 0.267960 0.313755 -0.055124 0.222517 -0.234204 -0.175818 0.678962 -0.711988 -0.603211 0.365354 -0.080757 0.323010 -0.467583 0.028532 0.483796 -0.612381 0.520800 0.768013 0.007110 0.302931 -0.787092 -0.063083 -0.088307 -0.274397 -0.104570 0.280987
*dt_174 -1.995674 1.078903 -0.186006 -0.583193 1.547860 2.272885 0.567498 1.212839 0.143781 -0.236477 1.106865 -1.204165 0.220857 2.273170 -0.740201 0.017654 1.539301 1.845789 0.888974 -0.533411 -0.309561 3.277067 -1.530321 1.243748 -0.663069 0.024942 -0.381441 3.316063 -0.387591 0.375053 3.125247 -1.497028 0.836178 0.264955 -1.665557 1.768877 -1.280894 1.444177 1.623895 0.557869 2.207574 2.207341 0.336124 0.793861 -0.577446 1.578923 2.458239 0.982995 -0.335693 -0.301295
*dt_175 -1.499754 -0.007684 1.094789 -0.575563 0.513358 0.608528 0.656758 1.101016 1.240272 -0.803316 -0.162258 -0.256616 -0.143385 0.255328 -0.842099 -0.378534 -1.179873 -0.856572 -0.698728 -0.463221 -0.596996 0.227241 -0.783326 0.876245 -0.031397 1.916833 0.746913 0.386168 -0.887520 -0.203866 2.817723 -0.324631 0.264963 0.256824 -1.285451 -1.941012 0.115140 -1.084561 0.198105 -1.651911 -0.417577 1.366834 0.691223 0.967894 -0.120572 -0.293276 -0.013493 -0.705760 0.476570 0.213492
*dt_176 -0.583769 0.258362 0.142129 0.622110 -0.368441 0.474508 0.213148 0.798582 0.284259 -0.695265 0.249777 0.244229 -0.321642 0.211584 -0.038484 0.136256 -0.158867 1.290033 0.534371 0.192106 -0.479251 0.416438 -0.491733 -0.164346 -0.767695 -0.060390 -0.217486 -0.089177 -0.000269 -0.724357 1.180687 -0.942564 -0.397903 -0.247775 0.312458 0.162366 -0.463586 0.207762 0.359506 -0.896540 -0.191846 0.258348 -0.094019 -0.223134 -0.551976 0.119601 0.823605 0.429599 0.107929 -0.069251
*dt_177 0.283821 -0.629802 -0.197362 -0.771126 0.272494 -0.232509 0.346109 0.235887 0.104597 -0.214962 0.305947 -0.037117 -0.232762 -0.373239 0.154505 0.359929 -0.138381 0.178348 0.505408 -0.097977 -0.060490 -0.105784 -0.266588 0.166021 -0.088401 0.363853 0.402282 -0.340654 -0.149574 0.449834 0.631769 -0.245003 -0.116275 0.320454 -0.231317 0.575853 -0.534579 0.148822 -0.158208 -0.883703 0.167804 1.142546 0.252074 0.414024 -0.707974 0.166146 -0.451399 0.134585 -0.456842 -0.424841
*dt_178 -0.148918 0.020457 0.024248 0.199652 0.065155 -0.398583 0.210031 0.245468 0.154905 -0.246010 0.105609 0.152029 0.162427 -0.052832 0.422997 0.143260 -0.197278 0.030107 0.170080 0.049466 -0.139372 -0.056210 0.064882 -0.271327 -0.346387 -0.212467 0.190503 -0.205594 0.475671 0.268275 0.656242 -0.305681 0.101623 -0.048782 -0.197449 -0.016721 -0.313307 -0.197004 -0.041678 -0.627898 -0.044444 0.085496 -0.056415 -0.114307 -0.263644 -0.076823 -0.021648 -0.480739 -0.314433 0.385839
*dt_179 -1.352107 -1.163115 -0.235204 -1.021989 0.806051 -0.827527 0.843870 -0.380559 -0.504063 -0.701768 1.060874 -0.078429 -0.832767 1.280077 1.573892 0.813917 -2.553183 -1.149901 1.044684 0.550733 0.263338 0.836509 0.902678 -0.629257 0.003526 1.182613 1.043628 0.728089 1.080728 0.074629 -0.162578 0.257626 -0.525650 -0.380058 -0.216385 1.477493 -1.613485 1.621604 0.354210 -0.004214 2.227073 0.793180 -0.748531 -0.397277 -0.233220 -0.470683 -0.996863 -0.287431 -0.649871 -1.127275
*dt_180 0.579497 -0.635396 0.319816 -2.852579 -0.721949 -0.134840 -1.537541 2.670516 -1.750075 0.227017 -0.520709 0.693009 0.053422 -0.046639 1.417584 2.336292 -0.626789 1.116194 -0.701226 1.010482 0.836727 0.795368 -1.763205 0.233449 1.690168 -0.859234 0.044428 1.486677 2.475300 1.568557 1.422797 -1.248745 -2.049211 0.924502 0.645433 -0.594008 -1.610227 -0.373817 -0.229176 -1.974573 -1.393418 0.116483 -0.771191 1.007267 -0.657599 -1.549127 -0.263865 1.069127 2.530682 1.454744
*dt_181 -0.254921 -0.241278 0.301012 -0.540574 0.226883 0.461444 -0.174875 0.393489 0.399030 -0.158545 0.542686 0.652173 -0.218741 -0.803627 -0.054346 0.952390 0.333439 1.180165 -0.024516 -0.037937 -0.505348 0.912067 -0.290088 -0.726979 0.735346 0.289600 0.131733 0.122616 0.552860 0.609908 -0.158717 -0.096641 -0.614009 1.017095 0.037470 0.557079 -0.626434 0.110615 0.719314 -0.229239 0.536466 0.278410 0.893601 -0.005786 -0.694973 -0.032284 0.162836 0.583356 -0.235210 0.026540
*dt_182 0.890516 -1.342646 0.521356 -0.555412 -0.600398 -1.094415 1.206034 -1.253679 -0.200389 -1.327039 0.525726 -0.084311 0.289369 0.142241 1.179683 0.724929 -1.658259 0.050728 0.144261 -0.692442 -0.837710 0.212383 0.228388 -0.068408 -0.798217 -0.289176 0.231894 0.389285 0.296559 -0.006534 1.066699 0.321008 -0.756430 0.511615 -0.623362 2.077786 -1.411732 0.940969 -0.280840 -1.068802 0.713138 1.068978 -0.245778 -0.843049 -0.171814 -0.590000 -0.977835 -1.403654 -0.981121 -0.639454
*dt_183 -0.005482 -0.007148 -0.368026 -0.302992 0.254835 0.485431 -0.008599 0.415478 0.308309 -0.843762 0.557130 -0.280904 -0.320519 -0.054754 -0.097961 -0.484352 -0.374183 -0.266266 0.516304 -0.008121 -0.183969 0.406859 -0.283753 -0.259747 -0.193133 -0.016936 0.257490 -0.436665 -0.217409 0.243964 0.443129 -0.451945 0.317459 -0.123068 -0.488028 0.399702 -0.540210 0.635592 -0.078534 -0.099430 0.035697 1.203434 0.459053 0.557966 -0.626223 0.228835 -0.405709 -0.478016 -0.823032 -0.312095
*dt_184 0.002946 -0.363647 -0.276435 -0.105191 0.148575 0.037872 0.262171 -0.095737 -0.030752 0.079313 0.399337 -0.273843 -0.126572 0.246154 -0.191128 0.016250 0.004796 -0.054292 0.122759 -0.037911 -0.314806 0.195721 -0.269227 -0.182086 0.138862 0.071707 0.124326 0.324760 -0.001213 0.002873 0.391329 -0.337087 0.085217 0.320767 -0.389849 0.618179 -0.153790 0.343512 0.279690 -0.323926 0.008197 0.472453 0.314404 0.029373 -0.518400 0.053522 -0.130651 -0.101817 -0.482204 -0.278963
*dt_185 0.702328 -0.808144 -0.661508 -1.070405 -0.127227 0.128525 -0.650976 -0.395349 -0.362992 -0.351585 0.078134 -0.113567 -0.150644 0.108518 0.004392 1.123834 -0.532610 -0.037713 0.041028 0.148605 -0.028306 0.200401 -0.050019 -0.556169 0.316843 0.123661 0.675920 -0.185541 0.073025 -0.148709 0.951545 -0.474634 0.484679 -0.123578 -0.541241 1.642724 -0.271067 0.369646 -0.268478 -0.879097 0.668108 1.085385 -0.106120 0.078835 -0.894113 -0.017077 0.081104 -0.538286 -0.448590 -0.674307
*dt_186 -0.393925 -0.632972 -0.370901 -0.030397 -0.000805 -0.057854 0.177780 0.408001 0.120427 -0.292735 0.407507 0.144154 0.243878 -0.021232 0.156421 0.265311 -0.356285 0.180969 0.609833 0.226452 0.145189 0.363870 -0.477506 0.114693 -0.160166 -0.239316 -0.055060 0.063044 -0.190824 0.311660 0.445868 0.247937 -0.593965 -0.192887 -0.048196 0.555788 -0.381924 0.383272 -0.326093 -0.125503 0.261877 -0.079765 0.180241 0.106183 0.077958 -0.184877 0.075077 0.049233 -0.351393 0.102742
*dt_187 0.975957 -0.456114 -1.020896 -1.257730 0.189595 0.409234 0.224029 -0.066402 -0.233589 -0.034523 0.835867 -0.537785 -0.384924 0.504729 -1.135147 0.462262 -0.187774 -0.324634 -0.031218 -0.314166 -0.401857 -0.041850 -1.038105 -0.443495 0.854363 -0.493464 -0.112655 0.858333 -0.106345 0.054394 0.834969 -0.624613 0.818852 0.994563 -0.140445 1.099017 -0.395394 -0.047402 0.311974 -1.181692 -0.143035 1.133742 0.413162 0.056590 -1.156480 0.008464 -0.608528 -0.290526 0.153680 -0.085415
*dt_188 0.597700 -0.677443 0.130024 -0.944725 0.220382 -0.279039 0.604725 0.365022 -0.101284 -0.458062 0.401675 -0.114622 -0.205702 -0.014599 -0.059982 0.638433 -0.352559 0.294988 -0.015956 -0.054959 -0.591209 0.002630 -0.269404 -0.163799 0.093082 0.265482 0.596876 -0.019710 0.791004 -0.119307 0.814596 0.089239 0.069586 0.073297 -0.172554 0.705180 -0.369775 0.097970 -0.050827 -0.869653 0.234519 0.661426 -0.130157 -0.128622 -0.230787 0.088827 -0.331693 -0.052424 -0.232065 -0.471712
*dt_189 -0.818490 -0.830665 0.868513 -0.819056 -0.931182 0.272874 -0.094362 0.507700 0.333857 0.475971 0.238561 0.224587 -0.495754 -0.020182 0.261798 0.790007 -0.822527 0.632852 -0.301023 -0.675079 -0.190710 1.335939 -0.792278 0.248303 0.671660 -0.104031 -0.072229 0.953299 0.023204 0.692989 0.746445 0.261375 0.610925 -0.697251 -0.791573 0.535796 -1.600477 0.156483 0.789532 -1.057770 0.830788 2.134222 -0.719778 0.399379 -0.727667 0.159147 0.996482 0.053970 0.373455 0.570815
*dt_190 0.202926 -1.312914 -0.623902 -0.740997 0.019785 -0.825582 -0.399010 0.761868 -0.858884 -0.682376 0.083532 1.039515 0.681220 0.667207 0.508836 0.776678 -0.984035 0.273693 0.056690 0.063669 -0.942048 0.723908 -0.134730 0.232386 0.771063 0.488689 0.548527 -0.354129 -0.522847 0.115951 0.034247 -1.060098 0.482357 -0.594384 -0.140598 1.410103 -2.591107 1.550621 0.063251 0.117983 0.865741 1.554587 0.276208 1.096812 0.443969 0.651104 0.408264 -0.132910 0.285620 0.163361
*dt_191 0.181926 -0.315007 -1.355742 0.459599 1.427472 -0.397011 -0.179737 1.219797 -0.091499 -0.704497 1.226852 0.422620 -0.849754 -0.716336 0.228434 0.179807 -0.708748 -0.565119 0.670228 0.862541 -0.466485 0.032948 -0.906685 -0.262532 0.159483 -0.416903 0.205794 0.723249 -0.656904 1.495083 -0.411067 -0.844835 0.671055 0.047378 1.035410 0.929089 -1.501205 -0.392325 -0.690276 0.046206 -0.420121 1.169755 -0.005662 1.369879 -0.591939 -0.624272 -0.271061 0.032687 0.275939 0.170859
*dt_192 -0.277534 0.070626 -0.356264 0.289079 0.422718 0.275672 0.416858 0.329620 0.192664 -0.229397 0.716824 0.212096 -0.018663 0.795011 -0.381580 0.871761 -0.672179 0.329838 0.274327 -0.024975 -0.942548 0.226059 -1.062192 -0.757893 0.460177 0.761014 -0.114009 0.907352 0.184254 -0.239009 1.010378 -0.490632 0.005125 -0.219204 -0.728065 0.829167 0.276643 -0.409479 -0.388819 -0.318488 0.631856 1.153458 -0.279763 -1.182518 -0.268019 -0.728640 -0.632907 -0.612064 -0.002428 0.646559
*dt_193 -1.429603 1.972801 -1.184097 -0.442005 0.443102 -0.850846 0.863093 1.315359 0.484889 -0.175924 1.248611 1.026253 0.199133 0.712135 -0.056439 1.075224 -0.527206 -1.810327 0.439089 0.847430 -0.822255 0.287457 -0.773551 -1.545833 -0.200957 0.928340 0.144946 1.246055 0.233537 1.778036 0.794592 -0.592960 -0.085202 -0.270691 0.267443 -0.167421 -0.643658 0.601303 0.377040 0.212294 0.030154 -0.015833 -0.175657 1.222526 -0.188310 1.475808 0.824561 -0.639552 -1.979843 -0.962429
*dt_194 0.235401 -0.890317 0.346378 -0.145942 0.486870 0.006816 0.551100 0.560312 0.688608 -0.573280 0.817454 0.280129 0.043874 -0.742151 0.153772 0.868663 0.015131 0.452543 0.190534 -0.694138 0.531316 0.407265 -0.462356 0.250332 -0.082144 0.237810 0.718525 -0.105121 0.625134 -0.446721 0.557452 -0.021239 -0.360613 0.350405 0.638646 0.372345 -0.517272 -0.407807 0.034707 -0.981753 -0.219223 0.879831 -0.410809 0.879135 -0.545796 0.123206 -1.222198 -0.541657 -0.188466 -0.376696
*dt_195 0.696886 -0.755533 0.279158 -0.709418 -0.084274 -0.549537 0.220449 -0.215641 0.734615 -0.967322 -0.124196 0.392083 -0.063554 -0.173682 0.404009 -0.107604 -0.390153 0.613219 -0.202614 -0.363442 -1.289595 0.514029 0.095677 0.427856 -0.782118 -1.270739 0.800144 -0.924765 0.294466 0.957216 0.570798 0.023522 -0.038181 0.558935 -0.983156 0.549583 -1.368002 1.230305 0.265598 -0.094305 0.389349 0.855407 0.558231 0.481084 -0.396750 0.505236 0.393948 0.379284 -0.609331 0.171590
*dt_196 0.174839 -0.877241 -0.664277 -0.621297 0.475174 -0.416502 0.801077 1.344851 0.483416 0.407467 0.463344 -0.137686 -0.395034 -0.662573 0.570545 -0.576870 -0.770813 -0.196128 0.579268 0.108274 -1.586421 -0.553574 0.485981 -0.039832 0.231040 0.319763 -0.038561 -0.046007 -0.153291 1.425614 0.175553 -0.921611 0.423075 0.405000 -0.187070 0.091044 -0.448747 -0.609486 0.189021 -0.244087 0.224723 1.248614 0.191897 0.549060 -1.236191 -0.427086 -0.215059 -0.246184 -0.912778 0.636593
*dt_197 0.077211 -0.595064 -0.235052 -0.261043 -0.469931 0.201524 0.631547 0.466805 0.166883 -0.271461 0.293475 0.098585 0.298111 -0.333905 -0.061757 0.094190 -0.562487 0.275650 0.188291 -0.233072 -0.365159 0.121760 0.311419 -0.240090 -0.337781 0.210315 0.551940 0.148941 0.616267 -0.044089 0.410733 0.034081 0.111166 0.774590 -0.217821 0.730592 -0.290130 -0.179829 0.260204 -0.468984 0.367902 0.250087 -0.377887 -0.043547 -0.932177 -0.031502 -0.276775 -0.380989 -0.543682 -0.690280
*dt_198 0.056082 0.057323 0.050880 -0.219058 -0.063191 -0.067790 0.259753 0.129105 -0.186438 -0.303822 0.064958 0.073436 0.107664 -0.042864 -0.096563 0.032862 -0.298216 -0.029342 0.194399 0.059784 -0.310098 0.043798 -0.106597 -0.070989 -0.187118 0.418647 0.146795 0.111442 0.130353 -0.047767 0.481905 -0.189904 0.208390 -0.216906 -0.097965 0.320592 -0.341538 -0.267207 -0.214828 -0.114137 0.230200 0.383192 0.091189 0.350851 -0.433724 0.353130 -0.094491 -0.249515 -0.117163 -0.427374
*dt_199 -0.453781 -1.692712 0.089331 -0.148025 -1.478753 0.425843 -0.252559 0.218768 -1.045011 -2.221597 0.428221 0.036278 -0.689496 1.474013 1.055187 1.349283 -2.177238 2.213732 0.905718 -1.765138 -0.678556 0.850495 -0.464696 1.151513 0.904364 0.042320 0.580388 -1.689638 -0.479592 -0.529815 0.248648 -0.391497 -0.196573 0.541125 -1.779210 1.319859 -1.601075 1.734022 0.921548 -0.030636 2.069642 1.007031 0.000892 0.205890 -0.367679 0.641592 -0.321601 -0.685345 1.481092 0.941810
*dt_200 0.697659 -0.698845 -0.698272 -1.195169 0.875454 0.039326 0.961480 0.466383 1.184950 0.636411 0.769365 0.452373 1.227917 0.048933 -2.087308 -0.507210 0.540546 0.761304 -0.411555 -0.696993 -0.992377 -1.285029 0.133715 -0.985519 -0.764875 -0.739027 0.672714 0.304208 0.292184 1.548324 1.139910 -0.297208 1.015524 1.486514 1.208504 0.254975 -0.549677 -0.150184 -0.218778 -1.331289 1.248812 1.556824 1.006689 -0.594964 -0.646473 1.705972 -0.217774 -0.391838 -0.487097 0.047256
*dt_201 0.236201 0.054544 0.364000 -0.431822 -0.026644 0.077361 0.424141 1.894669 0.180840 -0.095116 0.035616 0.801672 -0.171763 -0.386742 -0.083140 0.728811 0.314793 0.730571 -0.017163 0.412206 -0.741609 1.065171 -1.615348 -0.220484 0.466757 -0.110597 0.734645 0.166819 0.568150 -0.141516 1.204454 -0.603318 -0.685655 -0.300444 -0.010962 1.596655 -1.280197 0.411477 0.719431 0.059860 -0.176354 0.344163 0.817954 -0.352990 -0.236124 0.248638 0.114437 0.211053 -0.310924 0.330072
*dt_202 -0.223088 -0.731707 0.231894 0.026493 0.019472 -0.446914 0.443135 0.218291 0.167480 -0.054685 0.621190 0.322583 -0.233431 -0.005580 0.061587 0.789318 -0.209638 -0.301909 0.450962 0.107464 -0.037482 -0.170941 -0.392732 0.099282 0.067269 0.222972 0.000937 -0.013792 0.299296 0.188196 0.692382 -0.080284 -0.207218 -0.045662 -0.085054 0.580025 -0.343732 -0.068970 -0.256154 -0.411486 0.183193 0.274718 0.153555 0.627381 -0.345686 -0.093608 0.035640 -1.038025 -0.494807 -0.316335
*dt_203 -0.111191 -0.275343 0.126187 0.411468 0.470874 -0.236575 0.427108 0.948288 0.856517 -0.356942 0.362913 0.312498 0.156354 -0.008146 0.391344 0.453350 -0.327005 0.489850 0.827419 0.392418 -0.734871 0.152663 0.163126 -0.277472 -0.540890 0.331568 0.127150 0.002569 0.550765 -0.038772 1.175759 -0.549833 0.095848 0.024364 -0.479895 0.018409 -0.043956 -0.622211 -0.506035 -0.643074 -0.036772 0.381081 -0.260495 0.534525 -1.058955 0.103053 -0.080798 -0.330278 -0.624907 0.347341
*dt_204 0.182368 -0.325365 0.190846 -0.537298 0.256149 0.406596 0.601853 0.716643 0.122601 -0.233224 0.862267 0.820328 -1.059841 -0.536217 -0.853829 0.378376 0.410643 1.135818 0.288647 -0.024743 -1.087279 -0.110297 0.169548 -0.016163 0.006372 -0.156758 0.250894 -0.703744 1.404743 -0.399995 0.003689 -0.830880 0.010272 -0.082758 -0.595369 1.154647 0.417789 0.040653 1.077541 -0.039545 -0.242140 0.347730 -0.284538 -0.229839 -0.363021 0.590305 0.061244 -0.269137 -1.386998 0.375205
*dt_205 -0.101751 -0.029060 -0.341289 -0.156965 0.529433 -0.313420 0.175796 0.680317 0.307368 -0.503425 0.418814 0.106666 -0.208907 -0.450684 0.215190 -0.222742 -0.450664 0.067481 0.289570 -0.204050 -0.247488 -0.010841 -0.189475 0.100837 -0.187926 0.419161 0.111699 -0.164172 0.382376 0.515627 0.446148 -0.400458 -0.191988 0.365365 -0.218738 0.069684 0.029900 -0.038923 -0.105310 -0.377565 -0.085621 0.912845 0.062311 0.146276 -0.538224 0.113714 -0.452153 -0.379995 -0.186263 -0.157713
*dt_206 0.244811 -0.050337 -0.181069 -0.037431 -0.060090 -0.361627 0.263580 0.110845 0.431487 -0.463433 0.243445 0.250280 -0.179688 -0.422730 -0.376209 0.378894 -0.151145 0.112379 0.344109 0.135539 -0.214800 -0.208695 -0.678652 -0.376749 -0.189174 0.228128 0.197180 0.037460 -0.108837 -0.002298 0.431351 0.146737 -0.249037 0.569785 0.186496 0.645125 -0.351364 -0.423053 -0.273267 -0.541677 -0.241526 0.523714 0.153319 0.080413 -0.275285 -0.171636 0.020282 -0.775808 -0.487352 -0.162104
